2809 128
world -0.037716042 -0.026549002 0.06431756 0.14355916 -0.031202825 -0.08057994 -0.093686275 0.2366627 -0.21183068 0.008108864 0.17429584 0.08915757 0.06249999 -0.1617871 -0.035635542 0.10544118 0.028623866 0.118908696 -0.077273846 0.17638469 0.076454334 0.14635143 -0.0066032065 -0.16288841 -0.041870866 -0.074409015 -0.07471641 -0.16483493 -0.025672214 -0.03433227 -0.044896927 -0.032427866 -0.12124994 -0.026776977 -0.1277909 0.043587588 0.13830148 0.06925561 -0.06291223 -0.0016542492 0.21514758 0.2799194 -0.12746315 -0.18826094 0.1292157 0.044053856 -0.24180228 -0.05206955 -0.08253636 0.18319911 -0.029378628 -0.21172813 -0.0032632428 -0.10691312 0.06560916 -0.096803494 0.22882721 -0.11603458 -0.08196958 0.24726452 0.045611285 -0.017811205 -0.11485447 0.05885703 0.18431118 -0.038661405 0.10088505 -0.08096684 0.023539992 -0.24904674 -0.037350617 0.1811646 -0.025137542 -0.32907736 0.15109226 -0.11345616 -0.044388648 0.26739135 -0.18229282 0.04442054 -0.17832272 -0.20366323 -0.032995693 0.30378962 -0.094502114 0.03007986 0.1925927 -0.16026843 -0.013322292 0.19927423 -0.079200946 -0.11894009 0.01960748 -0.041082457 0.062976 -0.030239671 -0.15908663 -0.11233527 0.14084516 0.05886437 -0.25040224 0.07599301 0.033028312 -0.016949166 0.06881027 -0.015993139 -0.10256897 0.07234415 0.0753829 -0.0011780469 -0.051725682 -0.039771784 0.060501542 0.14453933 -0.22307527 -0.110041425 -0.03916589 0.2968256 0.069678 0.07024145 -0.065405585 -0.013928821 0.009615425 0.096063234 -0.20388947 0.20596896 0.096069045 -0.0010659568
cup -0.0064913793 -0.0518894 0.037893604 0.04431912 -0.036167406 -0.14746031 -0.13197601 0.21450645 -0.11781028 0.009511106 0.17608042 0.03566616 -0.0021251512 -0.13858871 -0.04949393 0.07173013 0.07517919 0.14946659 -0.060417403 0.14440274 -0.0011874586 0.11790927 -0.009515879 -0.14488591 -0.037513565 -0.09712855 -0.07847882 -0.13336536 0.009870721 0.006453138 -0.037998233 -0.03436226 -0.093179174 -0.0043185707 -0.14013386 0.110708274 0.1834004 -0.010864242 -0.07337451 0.028638333 0.124808654 0.32158956 -0.16619153 -0.20986453 0.14709218 0.10504198 -0.2456398 0.008328786 0.024688127 0.10016376 -0.076109126 -0.14397599 0.032721467 -0.09294521 0.075793095 -0.087332144 0.15399274 -0.19097224 -0.06629337 0.17502102 0.017425964 -0.06526351 -0.1316241 0.023403551 0.24856094 -0.0140239475 0.10550328 -0.13728595 0.016838659 -0.22849512 -0.033279836 0.1726098 -0.08866889 -0.2416103 0.12585244 -0.061106548 -0.05174063 0.31226948 -0.22731362 0.013645051 -0.18247227 -0.2129802 -0.022491572 0.26321483 -0.11619139 -0.016215516 0.14994183 -0.16329013 0.022599837 0.20158091 -0.108454905 -0.15386708 -0.015085999 -0.03559051 0.12234818 -0.027323674 -0.16121155 -0.15612052 0.14743 0.0614916 -0.1576328 0.09727283 0.09569268 0.0016821481 0.046931528 -0.0064350995 -0.15449332 0.031182203 0.017936908 0.09987196 -0.026277393 -0.05924027 0.05183661 0.14791577 -0.17277774 -0.09135759 -0.039219603 0.3237165 0.13579027 0.029521637 -0.08265807 -0.010237973 0.03553697 0.07079759 -0.2599866 0.18941347 0.16044968 0.07992767
live 0.043801982 -0.11490474 -0.017179018 0.044859063 0.030342184 -0.19963944 -0.057956163 0.090037204 -0.15596719 0.058938432 0.18124932 0.15074275 -0.11415841 -0.09110336 0.07253725 -0.030066002 -0.017393151 0.018989148 -0.025030812 0.27343723 0.087895684 0.24965687 -0.11419243 0.05335388 -0.16194318 -0.18158658 -0.104007795 -0.14920667 0.023417305 -0.11327788 -0.2344178 -0.020693276 0.09490577 0.049621046 0.24456863 0.12767027 0.21983382 -0.10820651 0.10510388 0.13062276 0.123248085 -0.057227306 0.073738396 -0.14015916 0.35324055 -0.00493806 -0.096114375 -0.13655744 0.0319407 0.11498664 -0.01653139 -0.032463606 -0.059742175 -0.018613 0.050681837 0.1290143 0.2590011 -0.20204777 -0.0662946 -0.16807288 0.09672107 -0.1037416 -0.15619875 0.0025269904 0.075266086 -0.07739822 -0.11451601 -0.045935817 0.073672414 -0.253318 0.015541804 0.015317182 -0.08788681 -0.13567425 0.31297433 -0.11019268 -0.20300382 0.28482705 -0.005822295 0.040901028 0.10292824 -0.15017623 -0.03635574 0.30181363 0.093195334 0.16813658 0.3008989 -0.061124045 0.080122225 0.30400985 -0.08660421 -0.14539863 -0.06927148 -0.12901688 0.27945748 0.061722487 -0.170261 -0.31412178 -0.058686465 0.06524529 -0.14717942 0.12830226 0.031538613 -0.16712093 -0.034185566 0.16803229 0.029921655 -0.010799443 -0.04743437 0.05426528 0.24296637 -0.20152718 0.06407708 -0.15655424 -0.08539116 -0.1847412 -0.15006466 0.036196407 0.04535974 -0.07189406 -0.15926006 -0.07489548 -0.1196119 0.23863108 -0.30161738 -0.031366482 -0.08165854 0.10446739
#fifaworldcup 0.23422395 -0.16830613 -0.002766192 0.20479286 0.12604769 -0.013871047 -0.07042505 0.16238695 0.025502963 -0.11476803 -0.083967544 -0.21649718 -0.042364784 -0.19404243 -0.16175863 0.020062128 0.021108683 0.11334391 -0.13455313 0.24651627 0.02227728 0.24445799 -0.05451083 -6.4972483e-06 -0.13877252 0.02394438 -0.12221583 -0.076404504 0.07505389 0.042059004 -0.12332814 -0.15114482 -0.06643842 -0.018048106 -0.085207514 0.27316898 0.36298153 -0.0536205 0.37091562 0.22870944 -0.033654615 0.115795195 0.020264298 -0.18548606 0.058708623 0.043947622 0.081838936 -0.018749926 -0.19044009 -0.044116203 0.089816496 -0.041971177 0.074578196 0.0020606807 -0.012602139 -0.10996897 0.2182875 -0.32971463 -0.115098834 -0.13222924 -0.043611147 -0.21333943 -0.089847475 -0.059802704 0.32981446 -0.04926679 -0.014997155 0.015391526 0.17886357 -0.19501467 0.06038539 0.15124746 -0.17259526 0.030947415 -0.0031442672 -0.02699726 -0.25442445 -0.018072 -0.13567223 0.13754658 -0.051617034 -0.07001521 0.24844661 0.10879884 -0.0902375 0.12518674 0.20198664 0.11294339 0.020545874 0.26880363 0.22656664 -0.26608834 0.10722578 -0.13841835 0.2898238 -0.10167446 0.02388051 -0.22712947 -0.17041844 0.039322924 -0.14141725 -0.068965755 0.023718307 0.13712865 0.035623606 -0.06013725 -0.087908156 -0.1811775 -0.0125327865 -0.1676421 0.0784971 -0.07754438 -0.13574207 -0.22429132 0.026935281 0.093283035 -0.20830481 0.086490326 0.11858351 -0.13398384 0.028076164 -0.17941895 0.028828673 0.3190284 -0.015560178 -0.04105015 -0.30004495 -0.04156577
2022 -0.049061395 -0.03243409 0.15740131 0.09028985 0.011582874 -0.31898543 -0.19282217 0.19761054 -0.10448892 0.06009221 0.042033594 0.020626292 0.024154691 -0.02878536 0.032105044 0.078922465 0.057940926 0.10349139 -0.01118048 0.081747286 0.14043431 0.08403055 0.06802998 -0.029391523 -0.019722026 -0.12966281 0.012033507 -0.19135426 0.021750716 -0.1070259 -0.18238747 0.0019221414 -0.04809587 -0.111812815 -0.08547026 0.16834144 0.06708754 -0.01732586 -0.020801283 0.030656517 0.17853212 0.1299978 -0.05701619 -0.09151935 0.23029745 -0.09604555 -0.19262482 -0.075160205 -0.091966316 0.09629112 0.016747588 -0.15313293 -0.07774547 0.043048806 0.027505338 -0.037353426 0.2503869 -0.078811936 -0.084212035 0.09702415 0.0069812043 0.01705569 -0.11900462 0.04585944 0.2616318 -0.1334983 0.08243085 -0.14846818 0.07310585 -0.18506718 -0.069165945 0.10100199 -0.021700075 -0.2621491 0.19995677 0.060309827 0.027152978 0.2874181 -0.17150046 0.10302544 -0.12223166 -0.29078022 -0.017037487 0.27322158 0.0115205 0.002996016 0.2043422 -0.1267517 0.14189069 0.3369427 -0.14220056 -0.10735904 -0.12335464 0.063439585 0.05063332 -0.02228631 -0.042113923 -0.34923932 0.029603811 0.14161164 -0.2243829 0.14047626 -0.09759288 -0.03351502 -0.03825832 -0.02267949 0.043119058 0.009127716 0.010132529 -0.08629378 -0.07820156 -0.15169545 0.20037755 0.15692864 -0.19913544 0.004563047 -0.17273095 0.25539938 0.113425665 -0.012980492 -0.24859194 -0.07401946 -0.1573975 0.09758368 -0.28526846 0.15041502 0.014629651 0.030762395
vs 0.10799712 -0.27543223 0.09800074 0.0665068 0.104021184 -0.044091016 0.0772944 -0.043114796 -0.10892777 0.016392164 0.017118137 -0.12680535 -0.019535558 -0.10613042 0.16113758 0.07453492 -0.14191552 0.12783037 -0.09269009 0.19787218 -0.015967827 0.16197023 -0.2491081 -0.09945979 -0.19089161 0.04887346 -0.06568523 -0.06667051 -0.17613333 0.07703139 -0.18536258 0.12471266 -0.0662704 0.0018233291 0.14944072 0.22527926 0.21768756 0.0058445814 0.18437621 0.069684885 0.34542716 0.102967806 -0.069600664 -0.12677068 0.2584057 -0.09935242 -0.09166308 -0.16835925 0.045795217 0.19741708 -0.114287816 -0.09859577 0.02673332 -0.15867205 -0.028747339 0.18555346 0.20313124 -0.060367722 -0.0014827091 -0.1819227 0.15340413 -0.29072037 -0.11871952 0.04740984 0.07794789 -0.0066136685 -0.04478744 -0.009570543 -0.02478274 -0.18201101 -0.052881338 -0.044352278 -0.094413586 -0.27867776 0.19194305 -0.12574266 0.0010752011 0.29603463 -0.22683975 -0.027835533 0.13334326 -0.09371475 -0.0839589 0.2735405 0.056312513 0.18858549 0.12466677 -0.08026428 0.08271206 0.37072366 -0.09568999 -0.065005 0.018184582 -0.052011143 0.11588018 0.049934216 -0.3153973 -0.393042 0.16193318 0.02576783 -0.13519605 -0.11903511 0.1206887 -0.022804817 -0.05905199 0.091874406 0.07697004 -0.007099673 -0.04351683 -0.043327056 0.11590561 -0.07353355 0.16205184 0.022305563 -0.044395674 -0.2145429 -0.10383461 0.06620419 -0.00466168 0.07778204 0.021524817 -0.056118008 -0.053532578 0.31485403 -0.27752677 0.18598811 -0.10625212 0.19120988
#qatar2022 0.21583399 -0.23924945 -0.10193505 0.15748362 0.22553828 -0.013814443 -0.042909265 -0.0031632797 -0.009331515 -0.079927355 -0.037624653 -0.05983559 0.117729306 -0.18807766 -0.06891957 0.14297959 -0.096053764 -0.07244857 0.04015701 0.07315962 0.07896489 0.0762194 -0.14764918 -0.15436643 -0.2653132 0.08321373 0.027237691 0.019992333 -0.004426692 -0.089661404 0.010445907 -0.19500177 -0.06357677 -0.036640264 0.13675629 0.28191912 0.4829241 -0.087226234 0.23647812 0.19590718 -0.050999332 0.031674936 -0.07996643 -0.35461894 0.05210786 0.12948191 -0.0058329506 -0.10230287 -0.31242508 0.080588184 -0.073766276 0.024432953 -0.024904046 -0.023935761 0.062284857 0.0066222716 0.11952368 -0.31123006 -0.15744641 -0.109630555 -0.10556107 -0.097029924 -0.0024884187 0.01416642 0.2029204 -0.094964534 0.09041902 0.18834223 0.14393596 -0.06449042 0.10628537 0.025848007 -0.30111215 0.018963816 0.04296437 -0.09965422 -0.2563312 0.064245336 -0.09913633 0.11099769 -0.045365326 -0.1709071 -0.06221165 0.24670477 0.004961823 0.0019420101 0.101595424 0.1423884 0.2731701 0.3724192 0.094576284 -0.1923677 -0.05435818 0.096827045 0.24411912 0.0064968322 0.014588153 -0.32417467 -0.1865261 -0.007561081 -0.093944125 -0.19951843 -0.11329483 0.10083229 0.078849815 -0.11853256 0.0041576326 -0.0436204 -0.10394977 -0.034892544 0.24560893 -0.2899745 0.081603095 -0.1646655 0.25571522 0.02278209 -0.039428074 0.0757764 0.066685006 -0.26496938 -0.10920267 -0.052668873 -0.006371028 0.33184856 0.013639532 -0.077107556 -0.16981234 0.026814722
qatar 0.028748475 -0.23880313 -0.094326384 0.065442175 -0.02719498 -0.15252943 0.013536565 0.15490124 -0.20998624 -0.0048509794 -0.08864181 0.11223728 -0.053418268 -0.13152204 0.0479564 -0.019945506 0.20050955 0.18679106 0.0109124705 0.2264776 -0.072240174 0.09324933 0.102161214 -0.047513496 -0.052168295 0.1848611 -0.13104545 0.08975957 0.06938034 0.0048027053 -0.10324133 0.13238066 -0.064711064 -0.08988632 -0.019382719 0.05764312 0.3226039 -0.15215085 -0.15881649 0.11110914 0.2346173 0.1897276 -0.013325772 -0.09237809 0.16331725 -0.070634514 -0.16735744 0.18227118 0.00011443165 0.20975496 0.0648085 -0.076898605 0.02705546 0.10252879 0.0078162635 -0.14699954 0.15264323 -0.07916849 0.030984571 0.058239304 -0.09618816 0.19986543 -0.25819936 0.03801571 0.29180256 0.03788973 0.16618747 -0.033457916 0.048755355 -0.12745297 0.009593129 0.02755713 -0.062389575 -0.4235586 0.22668657 -0.0019456996 -0.07476874 0.11534244 -0.058805574 0.07825623 -0.23098612 -0.17441261 -0.0056873034 0.20547771 -0.021162078 -0.043102935 0.23983873 -0.12028283 0.0067363754 0.18185072 -0.13712825 -0.37017772 0.0011351922 -0.098456204 0.014282202 -0.06273815 -0.0020367017 -0.3294599 0.12468401 0.18074735 -0.26104155 0.06785266 0.11014742 -0.07242545 0.024549041 -0.031681247 -0.16608475 0.074277855 0.18486784 -0.061218273 0.14720803 -0.100120686 0.06804966 0.112282224 -0.21768357 -0.021703329 -0.07628643 0.20066279 0.037814315 0.028377406 -0.039134454 -0.09881513 0.030465953 0.04153474 -0.14456147 0.36393827 0.020156307 0.22422431
fifa -0.035270397 -0.10304926 0.06854097 0.17655854 -0.03538197 -0.20484503 -0.073046885 0.19961971 -0.095602095 0.087227754 0.07819319 -0.014374406 -0.17346519 -0.090713106 0.005899677 0.14722607 0.14933279 0.1820236 -0.07008155 0.10079625 0.08445193 0.1839741 -0.0155577995 -0.01738633 -0.040541727 -0.048868082 -0.11813712 -0.009468063 0.10761262 -0.18690044 -0.07616349 -0.041860156 -0.13579069 0.06103108 -0.15013382 0.07177595 0.121730424 -0.057075005 -0.010705829 -0.02666475 0.1561987 0.28992125 -0.09144775 -0.11566224 0.22104175 0.09189059 -0.10742275 -0.14249046 -0.056301482 0.04485557 -0.10188193 -0.09463041 0.0773513 -0.048813615 0.037537273 -0.18191303 0.121862456 -0.09669046 -0.014577908 0.22438428 -0.03991738 0.069234215 -0.20039675 0.027726036 0.28159642 -0.048125707 0.04636948 0.0021581328 -0.022418112 -0.21559179 -0.048842866 0.076275125 -0.08534147 -0.38695174 0.121635 -0.14234121 -0.047241 0.22485219 -0.13479395 0.14745761 -0.2249049 -0.29499686 -0.05452198 0.171236 0.17280594 0.068734355 0.19144535 -0.14626178 0.04195454 0.16570744 -0.15212788 -0.14767684 0.0068120924 -0.10730922 0.11507626 0.02888243 -0.17542003 -0.16350546 0.1669192 -0.047974743 -0.15277751 0.11309753 0.043434717 -0.017324775 0.017706621 0.0881617 -0.10364537 0.16243112 0.12752928 0.034916878 0.008157983 -0.079867534 0.09139467 0.0916373 -0.1418349 -0.10994705 0.024310747 0.24559313 0.11861119 0.027206933 -0.15726732 -0.002806202 0.09575743 0.099626645 -0.3496763 0.094043456 -0.07804943 0.031091807
stream 0.15843998 -0.17241006 0.016213361 0.03137473 0.20225932 -0.24792829 -0.027005844 0.003990195 -0.081582725 0.04107374 0.14250055 0.00061321416 -0.19441684 -0.1106334 0.0824178 0.05329214 -0.004121684 0.09715994 -0.1536152 0.08545483 -0.043889586 0.09382265 -0.09355731 0.10050111 -0.13968177 -0.11421756 -0.12977786 0.027631996 -0.03925268 -0.1305044 -0.27557665 0.038099468 0.12988865 -0.012417583 0.020641979 0.13980497 0.31997386 0.033590313 0.11659733 0.18104129 0.07505612 0.031078745 -0.017986683 -0.14991763 0.31715512 0.078618854 -0.07211614 0.030619442 -0.07008255 0.077244714 0.112933315 -0.042169053 -0.06050366 -0.14924917 -0.018014317 0.107284226 0.33128667 -0.11835819 -0.08059985 -0.17244522 0.04592195 -0.16473332 -0.112721995 0.086013824 0.13541022 -0.17096028 0.010791092 0.12408064 0.13372688 -0.105494194 -0.077778116 0.035203714 -0.059813466 -0.23306091 0.2147215 0.061261583 0.016602177 0.31315044 -0.08989675 -0.023731258 0.07575722 -0.10480655 0.021299569 0.13312303 0.022936799 0.081154734 0.29422325 0.034409467 0.17252465 0.2871182 -0.103006676 -0.12904935 -0.040306482 0.019265346 0.38312823 0.17755617 -0.1796209 -0.36119744 0.0816014 0.07697345 -0.23555374 -0.05673579 0.032637235 -0.11713616 -0.017986426 0.21691215 0.0037165077 -0.10030195 -0.0629505 0.038069498 0.22998534 -0.14865652 0.119134605 -0.0568874 -0.07110553 -0.12091318 -0.265579 0.106674954 0.0078086257 -0.073763244 -0.062920205 -0.15331653 -0.040720847 0.20798905 -0.16911577 -0.10872793 0.053238027 -0.0015978917
argentina 0.23553735 -0.17697254 -0.10343589 0.07890195 -0.36855254 -0.018449927 -0.16116975 0.020608112 -0.099851675 0.085969664 -0.14204289 0.035066552 0.22637294 -0.31049794 0.1447007 0.3082158 0.15182076 0.26813436 -0.24913305 0.23824042 -0.12263079 0.23662321 -0.0532993 -0.22888938 -0.10391086 0.048949547 -0.0075307665 -0.05745161 -0.12691084 0.15489864 -0.24535234 0.09409287 -0.08139365 -0.09101864 -0.013538207 0.06428688 0.14551498 0.016893752 0.016863648 0.12442157 0.28846815 0.06033406 0.05629478 -0.08046135 0.33479908 0.075934775 0.011467589 -0.11112196 0.0040050144 0.115599774 -0.026433457 -0.29240525 0.0934014 -0.11785741 0.009073003 -0.109396264 0.11575674 -0.18223357 0.1687517 -0.051744685 0.12493747 -0.24094163 -0.15208255 -0.024561392 0.13124552 0.07292651 0.09401422 0.023988606 0.18928769 -0.17402774 0.20464793 -0.0975016 -0.06411002 -0.21453667 0.38968697 0.1561592 -0.09697972 0.27882522 -0.12409449 -0.06920999 -0.163745 -0.13825658 0.05204405 0.28163055 0.13629468 0.19361478 0.29244787 -0.11120671 0.25727344 0.48940122 -0.10872659 -0.010072883 -0.048328537 -0.045390993 -0.16004564 0.24523741 0.042671774 -0.20858888 -0.07664093 -0.0010730714 -0.097254194 -0.07403332 0.18989256 -0.05558627 0.10099543 0.1611321 0.15702513 0.21283327 -0.20917922 -0.16275677 -0.031089008 0.055277 0.09158011 0.10086233 -0.35161987 -0.07904633 -0.07123893 0.045847878 0.08957421 0.19265853 0.07889228 -0.13700159 0.27703393 0.07107813 -0.31684312 0.005637596 -0.07711109 0.119111925
link -0.06386809 -0.27961037 0.02696609 -0.07181771 -0.08352492 -0.17307259 -0.021152025 0.09992742 -0.16248925 -0.0023020792 0.0240721 -0.032849956 -0.044790678 -0.11119876 0.0890902 -0.019087484 -0.13813281 0.09932941 -0.027589789 0.21109618 -0.0015691568 0.17059712 -0.23157091 0.015453987 -0.24547312 -0.069813885 -0.15289587 -0.09720349 -0.08523303 -0.07174117 -0.16625857 0.13024482 0.119414605 -0.07837382 0.2458043 0.1750571 0.34007594 -0.02897088 0.1751305 0.16840285 0.09055475 0.01580175 0.15804051 -0.2458663 0.48306242 -0.020619938 0.021161804 -0.18810233 0.1111277 0.21437912 -0.05302445 -0.058916256 -0.035501726 -0.26206705 -0.005482909 0.16005749 0.3050216 -0.032120872 -0.060313627 -0.1503101 0.19347312 0.06683252 -0.075626716 -0.10997071 0.1282972 -0.21607542 0.06329849 -0.07497478 0.1782949 -0.05683597 0.041967407 0.17185873 -0.012399462 -0.14072903 0.18762453 -0.19147545 -0.083128616 0.3964357 -0.11742906 0.02989718 0.20178826 -0.25886983 -0.29804888 0.20913398 0.22617318 0.06532051 0.23834713 -0.018993061 0.09205265 0.28235677 -0.24366404 -0.04328826 0.13077278 0.04516767 0.40743297 0.018548563 -0.1436937 -0.24956092 -0.09692314 -0.051384684 -0.24117704 0.014023038 0.085965954 -0.13664907 -0.26875243 0.07474628 -0.020214241 -0.08752277 -0.09012308 -0.08283514 0.17994566 -0.18370365 0.13340496 -0.10144924 -0.043730248 -0.16047277 -0.043524995 -0.0045431205 0.06978536 0.1739142 -0.02910182 -0.22369885 -0.14668079 0.32576543 -0.24046884 0.018801793 -0.0024599303 0.110163935
#worldcup2022 0.09365752 -0.20080557 -0.1399083 0.33851072 0.24823156 0.077584445 -0.0035121676 -0.041568518 -0.11933521 -0.14621998 -0.12036047 -0.17000891 0.1534533 -0.3199784 -0.24077564 0.094376 -0.08811064 0.14217457 -0.18965557 0.09194792 0.08823557 0.26975545 0.1522605 0.1369096 -0.056124922 0.058303524 -0.17677812 -0.088120654 -0.120096564 -0.07114079 0.17590383 0.09053613 -0.10717579 0.1517009 -0.032110285 -0.0054379655 0.32051575 -0.024172276 0.20961443 0.32474324 0.0056229252 -0.021723209 0.05850967 -0.08997893 -0.09646343 0.046011012 -0.16430269 0.029742649 -0.43365124 0.15797566 -0.05787825 0.033531647 -0.040503033 0.22498202 0.25343052 -0.18310244 0.09369214 -0.39746577 -0.157144 0.025262065 -0.061148457 0.11358722 -0.03278102 0.15966342 0.22012618 -0.31159854 0.090213336 -0.08408722 0.1519091 0.048480373 0.1925019 -0.058163393 -0.060902867 -0.06505267 0.17105444 0.0512481 -0.10686545 0.100194536 -0.314043 -0.024224937 -0.22481872 -0.13887529 -0.013305593 0.110803925 0.093872905 0.117018275 0.10318448 0.06145574 0.2544305 0.25244334 0.22560394 -0.33401904 0.057677694 -0.052688476 0.3168854 -0.024282293 0.15996394 -0.20872177 -0.36736083 0.2182024 0.098690666 -0.046131 0.07395105 -0.20018725 0.073305205 -0.17734428 -0.11987788 -0.12632708 -0.043696355 0.13467574 0.25861982 -0.3071617 0.17493352 -0.1951143 0.28597984 -0.11759805 -0.10506876 -0.031898566 0.33377674 -0.09275684 -0.16228203 -0.07239807 -0.047113612 0.3238627 -0.07187136 -0.042318776 -0.21387416 0.21703798
england -0.14940046 -0.096168235 -0.15345693 0.1465222 0.15653782 -0.04649298 0.033788513 0.006237537 -0.23178105 0.003949913 -0.08653804 0.09491512 -0.07211606 -0.10624667 -0.084261246 -0.039517656 -0.059201017 0.066776894 -0.38839495 0.051010624 -0.2334369 0.09040638 -0.15148965 -0.16890919 -0.19096614 -0.09970675 -0.07216944 0.07432455 -0.25344205 0.011782329 -0.3738576 0.3641783 -0.21870944 -0.14554378 -0.2728996 0.17409462 0.22215874 0.110756345 -0.094783366 -0.027585745 0.42462036 0.12566751 -0.047758356 -0.22039641 0.046723247 -0.109968066 0.03327698 0.0142353 -0.09821614 -0.002001786 -0.097634 -0.34569627 0.03185723 -0.26594526 0.105910614 -0.06799612 0.095751464 -0.22942656 0.08181917 0.050365184 -0.06657878 -0.061605565 -0.15918364 -0.039075717 0.099665575 0.060259398 -0.21379079 -0.035165608 0.0699549 -0.27214867 0.03230727 0.1474458 -0.1217345 -0.16230626 0.5094826 -0.13125834 -0.017888717 -0.1544806 -0.08306946 -0.058212277 -0.02083099 -0.17379674 -0.07448597 0.29180208 0.10709504 0.22783504 0.11090821 -0.19737647 0.30020306 0.24370676 0.0017239676 -0.07843444 0.04108313 0.040845234 0.0973407 0.09650365 -0.20831057 -0.31615862 0.12870891 0.06290652 -0.09477902 -0.049966116 -0.04963478 0.06378386 0.045197047 0.14608333 -0.07746472 -0.07404631 0.03264605 -0.06327983 0.037359778 0.018978002 -0.06592293 0.1085121 -0.11986693 -0.15231101 -0.26427558 0.36175698 0.009083778 0.13188495 0.043188006 -0.06305199 0.2876042 0.23325801 -0.17297506 0.2862697 -0.22214521 0.055578735
#fifaworldcup2022 0.08409982 -0.08554336 -0.013214237 -0.0050543156 0.12975949 0.09517063 -0.036166474 -0.035175633 0.12036697 -0.14328103 0.028380359 -0.16264397 0.09322492 -0.1320346 0.03029881 0.24076368 0.07072135 0.041910168 -0.1211086 0.1054922 0.11823082 0.4462638 -0.05343759 0.10169524 -0.28744975 -0.22135775 0.029483527 -0.0434281 -0.053734608 -0.02937277 -0.028775824 -0.17784217 -0.10244285 -0.020021081 0.19207679 0.16759853 0.43779668 -0.057982612 -0.0089714 0.15111902 -0.08675768 -0.015942823 -0.20186447 -0.23849255 0.0018025363 0.041633926 0.0045348434 0.10318388 -0.32016462 0.021437667 -0.02010324 -0.018796172 -0.09113574 0.060152415 0.23158394 -0.0018076865 0.14729045 -0.30853435 -0.19638056 0.07980799 -0.01841543 -0.078570805 0.005917885 0.12681653 0.21138534 -0.30899793 0.17116259 -0.011041501 0.41260248 -0.0036573177 0.30911994 0.10072561 -0.15583362 0.055802606 0.12997709 -0.13336693 -0.19148488 0.23580988 -0.2580895 0.08497847 -0.12549193 -0.15818286 -0.048632324 0.29456288 -0.06904853 0.051219 0.24719484 -0.04338298 0.24326104 0.18435825 0.36787346 -0.19405147 0.020647464 0.20684657 0.6344012 0.006574114 0.037244268 -0.38995117 -0.13013196 0.10411941 0.09089316 -0.095390566 -0.050852504 -0.031813983 -0.022049943 -0.21557103 0.03567275 -0.13248493 -0.08034511 0.055670455 0.2526412 -0.25724614 -0.018118098 -0.041782036 0.256007 0.013570906 -0.07446631 0.019665077 0.07639169 -0.38841033 0.11256904 -0.2369557 -0.085661694 0.23993857 0.043275613 -0.22728397 -0.27687943 -0.06857938
#qatarworldcup2022 0.18395244 -0.3140404 0.012279755 0.14226265 0.05298363 0.11905793 -0.012432485 -0.17076275 0.0020837218 -0.26742935 -0.22827514 -0.09382199 -0.13156971 -0.12759681 -0.004401569 0.005721884 0.018455178 0.20795749 0.06375569 0.050409682 0.23724827 0.38654608 0.13304836 -0.016218925 -0.23187906 -0.031345125 -0.21395537 -0.18669994 -0.13297862 -0.021859236 -0.18239519 -0.17961253 0.056147106 -0.12710704 -0.065806486 0.22755784 0.3936196 0.034534097 0.3433253 0.26177877 0.04021149 0.12573364 0.022645159 -0.1121889 0.12328008 -0.0061633773 0.016960796 -0.056367703 -0.35103342 -0.06395222 0.0641524 0.14271055 -0.09884641 0.0031790477 0.11420941 -0.38667804 0.27718577 -0.07186017 -0.15940398 -0.070796475 -0.03460616 -0.18926632 0.009618014 -0.092312306 0.2049104 -0.0044866623 0.068153545 0.09036013 0.1820194 -0.20461528 -0.07182974 0.00424659 -0.14419869 -0.13467878 -0.018947521 -0.16498883 -0.30217275 0.14493318 -0.043875247 0.18492548 -0.2858537 -0.18866986 -0.09558884 0.09291965 0.11756409 0.2036523 0.1401117 0.07955379 0.15646537 0.2122919 0.11561297 -0.2514676 0.062055938 0.1272999 0.4093581 -0.12885998 0.12241101 -0.103091024 -0.24094883 -0.10444184 -0.1439201 -0.0910637 -0.0060449676 -0.0385877 0.3111776 -0.107648954 -0.13229088 -0.12827235 0.15730667 -0.09879014 0.22005837 -0.31214374 -0.2583635 -0.13404076 0.0390574 -0.054561388 -0.12212637 -0.03449935 0.18443497 -0.17859021 -0.12183676 -0.15660742 -0.109308615 0.4112173 -0.1479224 -0.24936247 -0.392525 -0.0798901
win 0.28727752 0.007886277 -0.010893869 0.052338302 -0.14529343 -0.09537018 -0.3429424 0.056149412 -0.33866274 0.08152238 0.078896046 0.09890463 0.06922163 -0.03206327 0.20473135 -0.099231236 0.09255718 0.058441397 -0.19201109 0.13860172 -0.11665541 0.3137229 -0.028656106 -0.22692779 0.09686424 0.1416529 -0.0013980548 0.055415805 -0.29729113 -0.085188165 -0.090482555 -0.18053254 -0.10387441 0.13369963 0.057916887 0.0118090045 0.029763605 -0.071471564 0.14779507 -0.12839569 0.23850985 0.10182091 -0.48208162 -0.2264735 0.0822026 -0.12529078 -0.20219395 -0.06940461 0.16353399 0.22179392 0.029900752 -0.2019175 0.056478914 0.004614808 0.2108484 0.14611185 0.084111705 0.07137028 -0.118928745 -0.14438577 -0.057819933 0.062255442 -0.078404866 0.15016359 0.25563678 0.12634471 0.15725282 -0.14741574 -0.006942226 -0.10826207 -0.122964986 -0.028562956 -0.11431965 -0.26882946 0.356012 0.08235101 -0.09958008 0.17526507 -0.36785212 -0.18460917 -0.081393175 -0.24052344 0.09484544 0.3209446 -0.052048787 0.22129884 0.14196992 -0.25632945 0.22736366 0.2699651 0.0660977 -0.29827803 -0.012518795 0.15084308 0.11909593 0.0075091366 -0.090119585 -0.17604668 0.08306941 -0.2233843 -0.26188785 -0.046943877 0.2272849 0.03501098 -0.027327716 0.097903766 0.011456994 0.07521097 -0.09417558 0.20567822 0.09830185 0.031911284 0.16067849 0.1082518 -0.06665249 -0.026178772 -0.011671801 0.16525444 0.18317243 -0.1497703 0.11768938 0.09722556 0.0734816 0.26631972 -0.17922959 0.11140161 -0.20839418 0.1276695
brazil 0.16224799 -0.15740982 0.13639842 -0.06964345 -0.053952873 -0.0039388128 -0.0811102 0.07437734 -0.4174014 0.26823387 -0.20091216 -0.014764917 0.033317547 -0.23321953 0.2046501 0.05720833 0.10582511 0.039616782 -0.1460685 0.06949604 -0.3329704 0.23272406 -0.33927813 -0.029606242 -0.19261102 -0.022743158 -0.10866349 0.08590546 0.063144326 0.14887652 -0.06500585 -0.17104848 -0.32155254 -0.060521547 -0.030424647 0.27610534 0.06946105 0.08012053 0.00888025 0.03627025 0.23097552 0.054897834 0.030148014 -0.17606393 0.24154125 -0.114893496 -0.2650405 -0.033172682 -0.0077737565 -0.022737842 -0.074861504 0.07380898 0.3513031 -0.103263535 0.020918421 0.10786234 0.16415687 -0.039433304 -0.02864426 0.010587382 -0.13908844 -0.23114796 0.005434473 0.07504941 0.20295079 0.09348174 -0.15735269 -0.0003316886 0.0367682 -0.10218664 -0.06552197 -0.037213627 -0.13795295 -0.34165052 0.3107474 -0.07701297 -0.064384736 0.12246469 -0.27639946 0.056665525 -0.008292182 -0.1533916 0.34887266 0.12709916 0.12040186 0.112493135 0.40945506 -0.067729354 0.22673944 0.51383615 -0.04214425 -0.03968993 0.15325598 -0.10080187 0.2706857 0.06868974 -0.14005195 -0.24813893 -0.1359227 0.06526199 -0.14379682 -0.057230763 0.23692974 -0.17221268 -0.23060238 -0.0063759857 0.16026662 -0.07756623 -0.16366804 -0.048861805 -0.009943129 0.13490453 -0.14391959 0.109026454 -0.15023561 0.052183606 -0.1835343 0.16339669 -0.11360608 -0.033742588 -0.1685861 0.12731175 -0.017955216 0.15782131 -0.0013548287 0.06922717 0.05856659 0.2879603
messi 0.1254196 -0.44166762 -0.097870335 0.13216552 -0.009454099 -0.06563774 -0.1889005 0.24862403 -0.3357972 -0.124559686 -0.1249165 0.010091649 0.09145569 -0.35583428 0.22321327 0.23912199 0.27772826 0.07785174 -0.37826377 0.11146957 -0.1391901 0.30269852 -0.266173 -0.11028169 0.21793947 0.3088658 0.054930482 -0.028315453 0.0471044 0.17018536 -0.2817713 -0.034405213 -0.14437158 0.20835558 -0.107274316 0.041552696 0.28609505 0.28914726 0.18863028 -0.14365704 0.3836721 0.07952363 -0.37802243 -0.21694866 0.25864547 0.35094455 0.0895451 -0.10514189 0.06565804 -0.0012916528 -0.07616442 -0.2363089 0.09084425 0.11023704 0.13147634 0.07786078 0.21849671 -0.17955257 -0.44868952 0.29269442 0.03331713 -0.15856221 -0.003522654 -0.12966809 0.16758631 0.045959804 0.2062399 0.1557644 -0.0002814296 -0.14601225 0.111717135 0.11299069 0.018644402 -0.21557084 0.5366875 0.24848656 0.26861244 0.080569826 -0.29296315 0.18078065 -0.18504268 -0.23437442 -0.10170135 0.2745723 -0.012713502 0.13368958 0.25758398 -0.15633191 -0.12062509 0.16964646 -0.03516749 0.25553146 0.09674993 -0.032025132 0.025485313 0.2443823 0.09488301 -0.16849056 -0.13957413 -0.08713632 -0.33806488 0.13746652 0.1791979 0.09996005 -0.065258466 0.06544977 -0.114031434 0.18135211 -0.14822589 0.12663864 -0.39474338 -0.17001429 0.026596246 0.22386874 -0.20573755 -0.0027446095 -0.08590903 -0.090120874 0.08883961 0.0009095546 -0.04732214 -0.10384296 0.30223823 -0.15853767 -0.18264565 -0.012934866 -0.045535006 0.11491229
team 0.20297682 -0.17357022 0.1947313 0.1513141 -0.015773682 -0.19328427 0.28736454 0.2685054 -0.3346348 -0.15465066 0.17873463 0.16699249 0.10550229 -0.18719703 -0.05368369 0.18436939 -0.13203146 -0.1678654 -0.13036682 0.17348161 -0.1579697 0.13592385 0.17005765 -0.316713 -0.04537426 0.25116014 0.10072065 0.12783267 -0.07645088 -0.034441262 0.124851495 0.02028261 -0.21386972 -0.09028183 -0.17194709 0.20641501 0.1148578 0.41298097 -0.028975312 0.12589785 0.18437351 0.23783919 -0.028162722 -0.14605835 0.32133824 -0.009959557 -0.08751888 0.025950495 0.0493056 0.19096038 -0.033752773 -0.2798729 -0.036802325 -0.17904879 -0.086901285 0.17276542 0.08061796 0.21450076 0.048670758 -0.052766237 -0.15037684 -0.18302603 0.11320186 0.20668751 0.27369067 0.102987446 0.11130883 0.20255312 0.34664282 -0.120442435 0.23057249 -0.09659444 -0.07636176 -0.21178019 0.23171657 -0.087327346 -0.43462658 0.14464475 -0.41913098 0.31217685 -0.15156232 -0.25301343 0.0076762736 0.45188084 0.13093247 0.14996105 -0.09262773 -0.2798126 0.48477829 0.21933377 -0.089164376 -0.1464663 0.20225938 0.097555876 -0.092751645 0.18960778 -0.06120271 0.04810782 0.06134256 -0.057730537 -0.23190948 -0.1633568 0.037178762 0.23628716 0.20758653 -0.060069904 -0.034711786 0.22430018 -0.13067698 -0.10885741 -0.061297186 0.033625364 0.12144564 -0.05049117 0.03622285 0.053965475 -0.11781803 0.074322544 -0.0258167 0.12737243 -0.18916771 0.0889985 0.1992504 0.20899281 -0.41033193 0.1419926 0.06553837 0.08242967
#worldcup 0.26673755 -0.09294915 -0.10128723 0.3087481 0.43728352 0.20662463 -0.20680472 -0.018704535 0.10465049 0.11365997 -0.28491643 -0.16612452 -0.049975008 -0.29664075 -0.20862137 0.10589892 -0.06485213 0.36534736 0.007791845 -0.08785109 0.20920107 0.20083596 0.07313294 0.013744038 -0.12146762 -0.049291722 -0.033117197 0.1508423 -0.09777125 0.06545683 -0.1397528 0.08847091 0.05946172 -0.20544897 -0.20655338 0.035006054 0.32787916 -0.06653635 0.09374267 0.25044194 0.1935393 -0.14804451 0.025622198 -0.19180089 -0.009916863 0.14015952 -0.06401848 0.09386364 -0.495912 0.32549065 -0.11460585 0.217877 0.23080415 0.031867154 -0.082275085 -0.23745269 0.26337388 -0.24620941 -0.0005105745 -0.08713337 0.135537 0.017143581 0.17515542 0.13320027 -0.006589055 -0.015122844 0.30348065 0.0098435385 0.07163458 0.08199771 0.060664494 0.22352362 -0.16686592 -0.09590045 -0.04881018 -0.215506 -0.12594457 -0.01582332 -0.3526841 0.06488607 -0.11919409 -0.0086052 0.0100805145 0.22407594 -0.038428128 0.12370874 0.23815605 -0.025436873 0.16837569 0.31699184 0.1750233 -0.3144102 0.023891775 0.011829395 0.25697634 -0.2406406 0.2905981 -0.14734818 -0.2756843 -0.1095769 -0.18159282 -0.11819059 -0.014721093 -0.06401027 -0.042712234 -0.27466816 -0.15866704 0.07165217 -0.034449942 -0.13492216 -0.20761523 -0.37206107 0.20067607 -0.083927654 -0.05588313 -0.133076 0.15269485 -0.004268471 0.047924828 -0.08356213 -0.06776263 -0.15161233 0.019208891 0.5091921 -0.17756166 -0.15328605 -0.53983676 0.13176958
opening -0.20838897 0.022593856 0.1777453 0.23711406 -0.034986146 -0.19772148 -0.13481432 0.2045813 -0.20784019 -0.15283413 0.12182538 0.03326941 0.06330302 -0.061092548 -0.017791413 0.017157381 0.2087971 0.16918251 0.08162914 0.1254892 0.054163966 0.16693415 -0.06507044 -0.14510219 -0.2331517 -0.18607275 -0.03608238 -0.04550367 0.039747015 -0.21933854 -0.0005944968 -0.07079649 0.02811388 0.11450466 0.035407532 -0.0046044765 0.13431494 0.0052423845 -0.11904696 -0.054487344 -0.05125313 0.12174796 0.07593416 -0.13773732 0.1698914 -0.025319636 0.034926794 -0.03934259 0.07290802 0.11359568 0.027681693 -0.01455639 0.03866292 -0.07446007 -0.029303 -0.059691943 0.14166497 -0.18764101 -0.029960603 0.091796644 -0.09276088 0.002181791 -0.21795262 -0.12419567 0.24156225 -0.1432691 0.12363802 -0.052874226 0.037154704 -0.24176672 -0.10151734 0.08308053 -0.20536275 -0.3458137 0.27301732 0.05751969 -0.06662339 0.21567291 -0.17526846 0.08203885 0.08103452 -0.27267545 -0.1136279 0.34914532 0.08762442 0.09407926 0.3730049 -0.11156719 0.031063521 0.16766888 -0.037279736 -0.16135441 -0.05655285 -0.027142117 0.33918288 -0.040062066 -0.24390563 -0.12951432 -0.0813318 -0.054689955 -0.24527806 0.16905147 -0.10974913 -0.056301106 0.003110129 -0.08249694 -0.15666422 0.03205653 0.020764384 0.01665137 0.019009922 -0.16456017 0.13201988 0.12915437 -0.30302125 -0.19362792 -0.08381024 0.1145331 0.31889743 0.059729338 -0.243121 -0.22155483 -0.07645218 0.09801706 -0.12601131 0.34479636 0.06440941 0.05999565
match -0.03868656 -0.30370504 -0.124456726 0.09478251 0.16503711 -0.10342988 -0.05975457 0.15661237 -0.15355118 0.14101061 -0.09168198 0.15529336 0.06352325 -0.096600056 0.1263222 0.041987997 0.031377003 0.29633012 -0.15099838 0.21235853 -0.15658489 -0.016330672 -0.094496876 -0.20797335 0.04945214 0.022020971 -0.14296575 -0.15095632 0.113090344 0.066438206 -0.14652689 0.017329033 -0.06618374 0.12700605 0.11488773 0.13313 0.026098184 0.09318653 0.06627005 0.069325484 0.23823236 0.13504933 0.04336584 -0.32227865 0.24906892 -0.16835038 -0.10888327 -0.14293157 0.0946728 0.23260099 -0.16034776 -0.19794677 -0.0047794334 0.16219164 0.077474885 -0.09280226 0.13343835 -0.09493338 0.066638686 0.14260772 0.15519442 -0.2938439 -0.2616255 0.16498429 0.019189544 -0.0008324035 -0.077680446 0.051968977 -0.14633557 -0.117338225 -0.031342708 -0.0049607945 -0.0050791395 -0.16073722 0.18813583 -0.18942273 -0.059953958 0.14870144 -0.39641768 0.07610656 0.022524675 -0.1586474 -0.035354596 0.33247057 -0.1338645 0.13925745 0.1428231 -0.14601572 0.1910708 0.21619308 -0.056648027 -0.13221243 -0.07829361 0.059307266 0.16602284 -0.014591354 -0.13460103 -0.26177627 -0.10830934 -0.07350242 -0.22025844 -0.10880783 -0.1465352 0.035771552 -0.097223245 -0.18259557 -0.13298422 0.1764998 0.046009894 -0.076307826 -0.00861854 0.06731503 0.12505966 -0.22001229 -0.06896079 -0.010617724 -0.09877569 0.06484774 0.14093728 -0.04944299 -0.17507707 -0.06347453 -0.10290573 0.23955628 -0.3432466 0.09000345 -0.14320016 0.16123648
game -0.08985877 -0.18115704 0.1395755 0.09094213 0.0091421 -0.13470675 0.22401066 0.085498944 -0.23599973 0.1828839 -0.12264241 0.028799318 0.23340207 -0.10324876 -0.04656182 -0.050335765 0.14072408 0.25925878 -0.16330923 0.33285135 -0.41804558 0.12040023 0.16430464 -0.23600149 0.11784741 -0.19765659 -0.16061172 -0.1733174 -0.14699037 0.15681344 -0.01854202 -0.014969742 -0.20589025 -0.046261515 -0.18011118 0.086074814 0.073876105 0.12603801 0.057056982 -0.02329324 0.3797263 0.027162736 -0.24420255 -0.2536974 0.04214917 -0.0058986223 -0.09165175 -0.18370336 -0.105440475 0.2672935 0.17832698 -0.27417266 0.05131916 0.021006033 0.21530224 -0.2512863 0.186282 -0.107198775 -0.049230885 0.33300117 -0.04832165 -0.3581154 0.03956847 -0.053707518 0.23662183 0.08909764 -0.118551165 -0.4105297 0.04801344 -0.31578988 0.02840953 -0.111341864 -0.03566217 -0.33227092 0.28601554 0.0015849973 -0.23392606 0.26597247 -0.33932266 0.09982161 0.14383645 -0.023395332 0.14540835 0.36086875 -0.100263186 0.048453692 0.21336791 0.049846236 0.33936846 0.09576833 -0.014275731 -0.055006444 0.07399961 0.059785366 -0.089339994 0.1564677 -0.23334001 -0.24784873 0.02060528 -0.15412858 -0.18466265 0.020992508 -0.06849907 -0.116689876 -0.21040878 -0.050247915 -0.0980482 0.07513548 -0.09109885 -0.09709626 0.029490417 0.02704059 0.056050133 -0.25355777 -0.12452146 0.05514878 -0.053335704 -0.03337463 0.30986267 0.117490105 0.08085064 -0.12871788 -0.006648112 0.14064582 -0.06907648 0.05250214 -0.17430632 0.1670372
football 0.07673942 -0.040588558 0.13427046 -0.28565836 -0.0061097653 0.013124169 0.23428378 0.16383225 0.021508515 -0.09952966 0.21072091 0.49666256 -0.012644027 -0.2068395 0.09632604 0.090023935 0.043558896 0.031659566 -0.25214863 -0.03142104 -0.09896403 0.11755252 0.005718407 -0.07091645 -0.1076961 0.16454795 -0.3134611 0.18980691 -0.029405393 0.013047073 0.10771569 0.031385507 -0.24742743 -0.27522415 0.013225828 0.121085376 0.3329222 0.2484865 -0.052511293 0.020141674 0.36941922 0.15809451 -0.13922957 -0.3141249 0.16106749 -0.16594583 0.03370146 -0.19475374 -0.17123745 0.028720664 0.10553014 -0.21736962 0.06396389 -0.07393438 -0.046574514 0.18645716 0.14717345 -0.11446793 -0.28110892 0.2304357 -0.37461507 -0.18676068 0.21411815 -0.024794584 0.39236024 0.06547428 0.0922562 -0.005310775 0.09610201 -0.25715312 -0.16777973 0.23561727 0.050060093 -0.27341908 0.2231227 -0.15750709 0.008578838 0.31120244 -0.1297331 0.12482324 -0.14089532 -0.19697885 0.03997925 0.26246956 -0.009033409 0.28325838 0.25462052 -0.20399736 0.11243142 0.19353296 0.07225064 -0.10211825 0.17862305 -0.057457246 0.13194716 -0.15860766 -0.19906965 0.19376819 -0.17010473 0.008469923 -0.5295394 -0.070660405 -0.01977675 -0.005507764 -0.016221555 -0.014111617 0.10941513 0.38563088 0.08459416 0.15839888 -0.046154603 0.028210305 0.22751787 -0.04352652 -0.059339136 0.11098817 0.1587535 0.21350488 0.25834066 0.17011102 -0.21290803 0.0947282 0.047353033 -0.06844816 -0.55829287 0.03377001 -0.13699822 0.02768529
iran -0.029865522 -0.24565744 -0.06318293 0.03479941 0.18607095 -0.16965127 -0.04401651 0.12413405 -0.087401904 0.08762452 0.033582322 0.23290408 0.15537427 -0.13008738 0.35707483 0.0958436 -0.10166557 -0.061904542 0.103896834 0.15181263 -0.0152343605 0.069441676 -0.026384665 -0.21913326 -0.21359631 -0.24927072 -0.36614025 -0.1466148 -0.0010069618 0.083635904 -0.07166581 0.21818697 0.005924408 -0.061943986 -0.049945287 0.060631163 0.28271595 0.03347522 0.0034161548 0.009553141 0.40919098 -0.14582874 -0.05257332 -0.4426194 0.1471516 -0.08058024 -0.12182066 0.11099764 -0.007976113 0.05813358 0.094930105 -0.4775085 -0.08909938 -0.03650479 -0.1060207 0.2191771 0.27887133 -0.060602207 -0.26180544 -0.08033084 -0.060093623 -0.169896 -0.33939135 -0.055280093 -0.081965216 -0.0065147784 -0.14829782 0.15672128 -0.00809274 -0.20025748 0.17938173 -0.27283224 -0.06792668 -0.27311102 0.052589893 -0.17324837 -0.24037912 -0.045195602 -0.26396418 0.024483427 -0.0030141792 -0.23586898 -0.4624537 0.22439915 0.12193849 0.25846997 0.00962038 -0.19447483 0.53148717 0.38004902 -0.06523637 -0.22594604 -0.0290378 0.014015674 0.29494074 -0.08807321 -0.15412176 -0.13240598 0.010790703 0.21089159 0.151425 -0.046109922 -0.27459213 -0.010881644 0.043608066 -0.17316787 0.23884283 0.1739456 0.041808628 -0.16825308 -0.06727575 -0.0018578965 -0.15381348 -0.025927834 -0.08393833 0.00020098442 -0.15795766 0.10635823 0.116034046 0.07066985 -0.2901692 0.16252162 0.15281232 0.237773 -0.18999927 0.2763637 -0.09835859 -0.09739516
ceremony -0.06162703 -0.0057590907 0.068885066 0.29588857 -0.08221772 -0.2763318 0.09377851 0.23855962 -0.08811232 0.24610238 0.0786174 0.059980668 -0.10053146 0.033709537 0.10066198 0.03387767 0.20370114 0.031125033 -0.09663127 0.12955609 -0.013884759 0.23916967 -0.08551859 -0.0002855233 -0.110660814 -0.3291069 -0.043750215 -0.16737433 -0.045054555 -0.24470979 0.052005243 -0.21813704 -0.096995205 -0.043236073 0.003494501 -0.012067855 0.21486989 0.020850362 -0.14361142 0.011148395 -0.10893495 -0.05399193 0.13717176 -0.18133809 0.21329466 -0.07480832 0.019404674 -0.072012015 0.17126547 0.16351783 0.05821324 0.11631125 0.061756697 0.009758898 0.075064205 -0.17107023 0.19710813 -0.053891238 0.02697982 0.08199643 -0.030063743 0.19074847 -0.17082368 -0.17983882 0.2763263 -0.11323232 -0.013639338 0.058424637 0.083232835 -0.17113604 0.07432371 0.036636688 -0.15009159 -0.37458038 0.14061104 0.131221 -0.21442127 0.24445213 -0.23913789 0.14355998 -0.17790312 -0.21799706 -0.23394771 0.1462429 0.023673316 0.09423703 0.42508364 -0.1020198 -0.013691831 0.33554837 -0.16976751 -0.18372703 -0.051067863 0.09389488 0.20245999 -0.020669881 -0.14783235 -0.09582349 -0.029772162 -0.067324296 -0.3698221 0.05943599 -0.14888859 -0.19664228 0.14578603 0.023231836 -0.081106275 -0.078728706 0.04868429 -0.018024463 0.12391326 -0.40713823 0.18682364 -0.121756375 -0.35345876 -0.09468184 -0.02775736 0.19789883 0.20930338 0.07063088 -0.23537184 -0.20970963 0.046731587 0.22579576 -0.20844898 0.31390676 0.18739551 0.12377744
#usa 0.40704677 -0.18225318 -0.06364509 0.22631286 0.11602034 0.18837881 -0.082541615 -0.208419 0.16052999 0.20531784 -0.0129499445 -0.18633781 -0.18583503 -0.42505193 -0.065799765 0.04759825 0.0002051254 0.15710539 -0.025931343 0.01590896 0.14898853 -0.06806368 -0.07605929 -0.076911114 -0.25278866 -0.20500688 -0.14990519 -0.16354802 0.08092854 0.044184253 0.27889428 -0.0026550258 -0.07165252 0.00036706016 0.044713277 0.03906086 0.510116 -0.25028533 0.15684478 0.14906439 -0.2185143 0.07601274 -0.22968432 -0.06535834 0.16547573 -0.2410562 0.22557661 0.3927177 -0.31352073 0.14846689 -0.15116744 -0.2572137 0.072476014 -0.23037511 0.22187221 0.051104654 0.25463852 -0.63984346 -0.07200997 0.033606306 -0.33402815 -0.019192912 0.29865277 0.4026087 0.44669938 0.19548364 -0.022583641 -0.071848415 -0.044749953 -0.19310358 -0.021935916 -0.033036597 0.027858768 0.2910572 -0.092168406 -0.045147277 -0.38600057 -0.29619202 -0.13742453 0.21648678 -0.05024992 -0.20056039 -0.24769896 -0.07410307 -0.4051521 0.42746532 0.07426864 -0.11756858 0.2634775 0.34343868 0.10287653 -0.29609323 0.2609216 -0.2438691 0.37407127 0.013817436 -0.17395322 -0.2475301 -0.21603152 -0.008489849 -0.28915974 -0.09664551 0.14880928 0.059649777 -0.17048323 -0.062333338 -0.27968022 -0.3210168 -0.16146652 -0.17048708 0.46483624 -0.46592227 -0.14653274 0.17219098 -0.049721085 0.013281002 0.05278454 -0.20172592 0.099947184 -0.25574172 0.042337477 -0.19133374 0.07891294 0.4624257 -0.2511015 -0.22124739 -0.1694037 0.20056166
croatia 0.21938641 -0.12508413 -0.13796863 0.114565976 -0.017892918 0.027100414 -0.18409835 -0.07405492 -0.25072283 0.025899766 -0.01488739 0.0975075 0.3714453 0.12397871 0.32285357 -0.15574488 -0.017328383 0.18930614 -0.12838951 0.32051736 -0.12471591 0.13225058 -0.20883876 -0.17079069 -0.16329558 -0.051042743 -0.13056302 0.028033927 0.19567947 -0.09417025 -0.1546505 0.15055437 0.013799855 -0.13462903 0.201087 0.09271942 0.22170983 0.2186889 0.052211564 0.13058512 0.050876442 0.11263067 -0.018212425 -0.19655998 0.3639388 0.19266228 -0.28837287 -0.20100063 -0.22116509 0.07323016 0.023707924 -0.011261883 0.18684436 0.1549357 -0.20619205 0.1841923 0.16285008 0.09602012 0.056965347 0.08597455 0.033860013 -0.29079047 -0.01820504 0.053130124 0.26229262 0.00056664157 -0.20216712 -0.084455125 0.046875536 0.02215028 -0.16716668 0.030655567 -0.2775364 -0.19677953 0.4749185 -0.0046489583 -0.11238099 0.089188 -0.32261983 -0.09120049 0.110672064 -0.022377865 0.035866827 0.3825736 0.20939845 0.022265667 0.16332603 -0.0860864 0.06861511 0.43479094 -0.08362315 -0.07550321 0.078182116 0.017065309 0.18701176 0.17507409 -0.3386053 -0.37845635 -0.11761812 0.088813946 -0.07199273 -0.17128411 0.22269218 0.1284358 -0.06762424 0.060807988 -0.18014963 -0.010639573 1.3567105e-05 0.09482481 0.22677054 -0.11270401 -0.16854775 0.06493877 -0.10557622 -0.0130262 -0.13807742 0.04551896 0.026280377 0.12147429 0.013803267 0.14634852 -0.014710365 0.314841 -0.11040007 0.117157266 -0.006378677 0.28588653
portugal 0.03507952 -0.23521478 -0.09384917 0.17565875 0.009614965 0.13954128 -0.09175551 0.2545681 -0.4078275 0.016521474 0.13453057 0.10750062 0.11911386 -0.26684576 0.22161557 0.2265814 0.08940939 0.17943019 -0.37767574 -0.17578568 -0.18207885 0.3554776 -0.32660317 -0.22138722 -0.18620479 0.07106804 0.06940681 -0.10613127 -0.20343259 0.018750833 -0.18125501 -0.030061742 -0.18057233 0.015711714 -0.149046 -0.17376126 0.013534738 -0.019458456 0.054659113 -0.21422434 0.33870628 0.0026144083 0.0010396207 -0.112793475 0.2248491 -0.052751645 -0.11008087 -0.08431545 -0.010366719 -0.083320394 0.22866282 -0.076353274 0.25884616 -0.04843291 -0.23064971 0.20148984 0.061117947 -0.13317475 -0.09349432 -0.023355443 -0.008076171 -0.33831012 0.030898366 0.27926058 -0.10144334 0.11322068 -0.1795686 -0.07343807 0.131905 -0.3898345 -0.08603203 -0.18687256 -0.38084313 -0.38545573 0.19092289 -0.047451306 -0.038694765 0.21668379 -0.35222626 0.02071315 -0.11811555 -0.13465033 0.17531502 0.028981801 0.115021996 -0.09366946 0.17364047 -0.324033 0.09851782 0.104438186 -0.06193978 -0.05766713 0.11887318 0.042711522 0.47423357 0.006142751 0.11003224 -0.4409576 -0.053257305 0.18849348 -0.28786677 -0.108380355 -0.0431049 -0.008003547 -0.051263154 0.090753935 0.011891053 -0.120581806 -0.09513442 0.012042249 0.21217167 0.08912267 0.06445129 -0.0468052 0.13421746 -0.17834137 -0.110531405 0.14602809 0.041438248 0.08770818 0.00029084014 -0.07079892 -0.112797074 0.29709446 -0.36473247 0.35349143 0.28007755 0.06959066
like 0.14758295 -0.28891018 0.20176739 0.0026763438 -0.18816833 0.089030616 -0.025117492 0.26862952 -0.17016447 0.0558136 -0.2235019 0.3809725 -0.04442003 -0.30255058 0.22994459 -0.07095121 0.16185719 0.23654804 -0.24827704 0.09799255 -0.27996916 0.4635718 -0.067486435 -0.36200818 -0.20384143 0.08592458 0.060602307 0.3701411 -0.07690347 0.32173544 -0.25375062 -0.019804018 0.0882044 0.021694101 -0.4107373 -0.040686205 0.11840505 0.01044169 0.21216075 0.048450734 -0.09123209 0.07844989 -0.11921458 -0.4417951 0.21275653 0.015755888 0.0802971 0.20814449 -0.006775875 0.123807214 -0.16493271 -0.023425965 -0.086059086 0.04620732 -0.02547629 0.31199592 0.29203215 -0.1954118 -0.02550674 0.31108373 -0.21238767 0.18968412 -0.21345556 0.019285504 0.093594015 0.14209722 -0.017715748 -0.20340021 -0.08431728 0.08450494 -0.23421723 0.068877056 -0.15435457 -0.16555494 0.34131974 -0.1736661 -0.07743322 0.14176394 -0.1642159 0.26387137 -0.117124006 -0.2693942 0.11713667 0.24547602 -0.15770039 -0.12633829 0.2938369 -0.3111269 0.18984984 0.08020947 -0.083156876 -0.22792932 0.0380413 0.17154242 0.08173941 0.1554928 0.17268108 -0.0038891872 0.1957825 0.017014993 -0.5444189 -0.0033329811 0.1868784 0.20804012 -0.0075687715 0.033465084 0.22242525 0.13102974 -0.116577156 0.05648192 -0.12231165 -0.17682144 -0.13359116 0.03873418 0.19045149 0.056764968 -0.08787248 -0.039069157 -0.05796901 -0.26398715 0.13028723 0.19723925 -0.09412654 0.21640731 -0.23231606 0.11042588 -0.14000075 0.11880953
#fifaworldcupqatar2022 0.13384044 -0.25520006 -0.0051623606 0.27678293 0.17172949 0.23429905 -0.16984715 0.12981649 -0.069343776 -0.017843984 -0.032875527 -0.30562004 -0.043749247 -0.41687396 -0.0773945 0.052148838 -0.04805852 0.012609018 -0.001429847 0.022566302 0.18492419 0.28548813 -0.006025729 -0.16784096 -0.16184112 -0.047382377 -0.260676 -0.18923934 -0.08472955 -0.09490519 0.05779971 0.10674634 0.035963032 -0.14626098 0.16124743 0.16692683 0.414054 0.09428313 0.2439056 0.12855306 -0.07309211 0.11103213 -0.086744964 -0.13469382 -0.072590426 0.046846867 -0.15988082 -0.31435525 -0.40407926 -0.062389657 -0.01169038 0.16763535 0.04214665 -0.14535518 -0.036190122 -0.14568914 0.29256678 -0.14805841 0.026536686 0.08252044 -0.12339525 -0.10841783 0.021150803 0.03847402 0.3102407 -0.02006092 0.068164654 0.008286932 0.12108797 -0.032541383 0.31933728 0.096031584 0.05422176 0.041713282 0.109357916 -0.16026092 -0.047434524 -0.06717349 -0.034320086 0.13090588 -0.013970927 -0.21240221 0.08538392 0.2195079 0.12344339 0.067887284 0.26181552 0.14863415 0.13808873 0.18578021 0.19174539 -0.1396639 0.22651033 0.0028017275 0.37575796 -0.032281704 0.102324806 -0.34035206 -0.013249378 -0.0007210848 -0.13471624 -0.1949798 -0.019177048 0.0280827 0.019617157 -0.041750517 -0.030617248 -0.26875764 -0.16941883 0.04633399 0.24681783 -0.15937424 0.19735321 -0.19499442 0.12582846 0.12608859 0.11047512 -0.07882761 -0.029991768 -0.3758631 -0.004422633 -0.29025748 -0.102764666 0.39433536 0.034308814 -0.108167335 -0.27173194 0.10724588
watch 0.08057635 -0.23323993 0.10531364 0.046903186 -0.19715644 -0.04436626 -0.09688246 0.1413872 -0.34861 0.08404474 0.20520918 0.10069425 0.089770555 0.12190903 0.22697534 0.0060559907 -0.022583807 -0.038948633 -0.038516805 -0.10736374 0.03432035 0.10753931 -0.17048496 -0.17347746 -0.053609174 -0.025628665 -0.049644977 -0.15137757 0.04559271 -0.07840983 -0.013205022 0.12612164 -0.015730781 -0.23192865 0.13303144 0.17148803 0.17311934 -0.017405499 0.08080392 0.3115916 0.24320132 -0.006571092 0.04715984 -0.09363425 0.028822927 0.08617746 -0.14659302 0.06932538 0.1383025 0.05404084 -0.18629947 0.044003822 -0.031587426 0.077074714 0.12971638 0.039678358 0.105123825 -0.2933704 -0.06986631 0.0002481606 0.011141301 0.088312395 -0.021656329 0.18300356 0.11148471 0.11406426 0.098168105 0.027273988 0.13381621 -0.4117069 -0.17115574 -0.0054454864 -0.06627958 -0.5491826 0.22876854 -0.12177668 -0.083661295 0.0804369 -0.24540839 0.06767702 -0.11761583 -0.3436078 -0.0053956206 0.15895624 0.031104116 0.16883676 0.061927624 0.045927934 0.29727304 0.29488495 -0.13603674 -0.16327907 -0.2536952 -0.12859267 0.2807042 -0.13826965 -0.10745718 -0.1902059 0.15626632 0.14518443 -0.21664132 -0.051643327 0.15234347 -0.026531706 0.1261703 0.20126007 -0.0049403687 0.05998177 -0.20825014 -0.033110127 -0.009391459 -0.03792407 0.4176733 -0.10982827 -0.09543054 -0.17920609 -0.03029861 0.09915899 0.0573867 0.10201102 0.017679995 -0.16424797 -0.18526511 0.23014773 -0.116745666 0.15350163 -0.08238834 0.06667102
netherlands 0.049663685 -0.33974326 0.11031466 -0.02114786 0.10949636 -0.12803125 -0.061469037 0.038223725 -0.2958259 0.12535612 -0.035811964 0.07427681 0.045821372 -0.26761827 0.16918907 -0.08634599 0.13601917 -0.020033572 -0.2199423 0.22586845 -0.20484062 0.14746305 -0.11245565 0.005115737 -0.036834907 -0.047955018 0.01556177 -0.19467203 -0.06735419 -0.16598862 -0.49154797 0.09219607 -0.10666311 -0.025873778 0.18345365 0.3214652 0.15277442 0.008694993 0.07623055 0.09156041 0.1728413 0.044387277 0.02808762 -0.07151811 0.19478965 0.095242046 -0.0021381513 0.24183622 0.04073884 -0.03875021 -0.25019905 -0.26351574 -0.08621643 0.07283923 0.0013934553 0.130519 0.26774168 -0.20068647 -0.15971434 -0.25644162 0.03297559 -0.31455296 -0.13331033 0.20139782 -0.06203708 0.01863915 0.20412053 -0.029216416 0.17139153 -0.13335967 -0.105189994 0.0914329 -0.16539072 -0.49290347 0.23812449 0.05433023 -0.049903266 0.24446984 -0.03094767 -0.10053442 0.07915322 -0.20567936 -0.16551007 0.23529139 0.1137425 0.33721155 0.3196281 -0.033043846 0.22408815 0.12039017 -0.08737309 -0.16873176 0.14049654 0.10068597 0.00900341 0.046117518 -0.23590524 -0.28791398 0.042443674 0.14561029 -0.06912738 -0.048066806 0.052471742 -0.0065153413 -0.07679632 0.106140934 -0.17478102 0.048416525 0.23952177 0.0122782225 0.06029813 -0.18793894 -0.072722785 -0.022762464 -0.1855829 -0.14478746 0.110206775 0.01727916 -0.13556024 -0.15023404 0.026492486 -0.12446018 0.025075072 0.17115106 -0.22835869 0.2453789 -0.0062582036 0.14941444
#argentina 0.30141598 0.06926601 0.10899021 0.056226544 0.25543398 0.14889601 0.0017803634 0.10309916 -0.042594407 -0.34883186 -0.2471187 -0.17524618 -0.004861187 -0.29289588 -0.0063777706 0.21899839 0.20092458 0.071423985 -0.05463084 0.062091343 0.18968397 0.4159703 -0.22809005 0.118546695 -0.25326714 0.042684674 -0.2275717 -0.21682876 -0.0037280323 0.16613215 0.04886951 -0.058903977 -0.09800223 -0.020160545 0.06604767 0.3231588 0.5992956 -0.094875455 0.10710117 0.31786823 0.0730541 0.025282852 0.04458447 0.11708302 0.026961321 0.10944454 -0.1303541 -0.009489106 -0.28727642 0.060589533 -0.0187714 0.16913465 -0.020151345 -0.16993546 0.21646872 -0.057304945 0.1058918 -0.55001456 -0.17032458 0.04981566 0.13219714 -0.1252417 -0.07546665 -0.12980576 0.0806278 -0.35234496 -0.011665862 -0.09208846 0.09119314 0.091518626 0.010292452 0.10962962 -0.021502381 0.30910963 0.43066293 -0.017374797 -0.10978883 0.06345709 -0.05633751 0.20446064 -0.26368225 -0.32921255 0.24983412 0.17869009 0.0029602929 0.3353868 0.38453647 0.114243284 0.23400061 0.24235654 0.30151796 -0.16169246 -0.025617769 -0.017662667 0.35815102 0.032856558 0.0800417 -0.28419578 -0.034994934 0.040085774 0.029649518 -0.21398807 -0.1281807 0.047717214 -0.22551459 -0.19724931 0.07220804 -0.15828611 0.1824726 0.05096657 -0.042676516 -0.13938844 -0.035682544 -0.17911628 -0.04781092 -0.04604911 -0.0062469193 -0.1758833 0.44156364 -0.060058314 0.003991201 0.040863752 0.24709427 0.3758781 0.0037133964 0.0033192916 -0.12709506 -0.10115471
today 0.04731057 -0.02140289 -0.009824134 0.053536024 -0.085120395 -0.1270433 0.040189892 0.36884266 -0.11839759 0.056526665 0.10309699 -0.044434085 0.20724456 -0.19265184 0.0138687715 0.28642944 -0.08779018 0.20440191 -0.4553381 -0.063024044 -0.1691309 0.20367229 -0.017949158 -0.16640222 -0.05386067 0.01462155 -0.120326 -0.125602 -0.13157515 0.04163438 -0.02199177 0.12121775 -0.033707947 0.084627375 -0.086498454 0.13773549 0.21145919 0.007493292 0.0024119131 0.21266861 0.2888826 -0.01258239 -0.14266388 -0.1366643 0.16866244 -0.012206566 0.14868285 0.19247921 0.0522169 0.21749559 0.054251608 -0.1718259 0.07982386 0.07328 -0.12533191 -0.10287305 0.23153205 -0.13855673 -0.13495728 0.2331849 -0.1256131 -0.11138249 0.033183962 0.19215578 0.2606741 0.3147429 -0.08972252 -0.11924752 -0.13938318 -0.27768034 -0.0190774 -0.22203575 0.106427535 0.028838951 0.2631162 0.014811082 0.013180476 0.067463234 -0.063609116 0.098708585 -0.09425699 -0.28438812 -0.0070817918 0.48325217 0.25324303 0.1199586 0.21231242 -0.11172556 -0.008980591 0.260626 -0.20887305 -0.3513129 0.060032967 0.15194345 0.14114474 -0.057758477 -0.28758654 -0.2247578 0.07188991 0.0943657 -0.31559756 -0.1495221 0.2365559 0.22434783 0.04440524 0.13181555 -0.040971145 -0.049776636 0.017556652 -0.021381168 -0.036248572 0.17603567 -0.14168425 -0.04965374 -0.0041439384 -0.24665157 -0.063193314 0.1492219 0.11990573 0.03551049 0.0026828174 -0.030208733 -0.09507411 0.14151172 0.015854267 0.184951 -0.12803105 0.1367363
usa 0.066474706 -0.10902211 -0.063544706 -0.039709315 -0.058351573 -0.03918368 -0.15984398 0.026404813 -0.070296735 -0.14985418 0.12623902 0.11332758 -0.07627905 -0.051847678 0.21536015 -0.04884259 -0.1646474 0.23819529 -0.34102347 0.02032063 -0.14963976 0.030522749 -0.008261642 -0.21554518 -0.08213489 -0.15391973 -0.080958255 -0.02202757 -0.32072228 0.08962983 -0.2686158 0.21675183 -0.094429106 0.033579446 -0.10038835 0.11989694 0.15408064 0.047445167 0.014564841 0.038972236 0.270187 -0.022352487 -0.095800065 -0.33641192 0.036903773 -0.12915885 -0.050007794 0.07220831 -0.00555878 -0.10631099 0.04251436 -0.307476 0.075025186 -0.04616524 -0.09924912 0.078903586 0.080597 -0.15132925 -0.055045124 -0.108337194 -0.04546139 -0.21429706 -0.2191793 0.035638295 0.25720364 0.0016909688 -0.151366 0.11597922 -0.12252963 -0.09183061 0.07819218 0.069882266 0.024816914 -0.40163198 0.29190916 -0.024549352 -0.18682984 0.012599525 -0.23556048 0.22986338 0.15732935 -0.16247426 -0.3146393 0.3409071 0.07434157 0.17935947 0.07355854 -0.13612069 0.33213225 0.23699425 0.010429714 -0.14024267 0.09460505 -0.21353842 0.03520312 0.08489817 -0.16981728 -0.316065 0.089501396 0.029563557 -0.13792014 -0.06752541 -0.09875433 -0.15476574 0.007578557 0.02278678 0.021807482 0.028343963 0.002529288 -0.19324952 0.11047495 -0.032279506 0.02097649 0.05075334 -0.012350394 -0.16528817 -0.1279492 0.24519302 0.020670198 0.073268235 -0.19820628 -0.101704225 0.20123313 0.3279901 -0.27687097 0.03495944 -0.17457789 -0.027680667
ronaldo 0.10080989 -0.3809547 -0.15604201 0.012981049 -0.07884304 -0.043977477 -0.13934314 0.47511023 -0.5314098 0.015306385 0.0031877155 0.048470594 0.07037974 -0.19636871 0.06793837 0.07506681 0.14073509 0.29159123 -0.30521777 -0.022584246 -0.41326654 0.5566968 -0.24638131 -0.28069913 0.1237721 0.11213501 0.05814259 -0.16691573 0.2776418 0.20412198 -0.07164593 0.09796588 -0.07694715 -0.09266936 -0.4484754 0.09621802 0.044032518 0.07355119 0.099190086 -0.33362046 0.3783661 -0.19810744 -0.5485899 -0.23300873 0.14977443 0.23766519 -0.33573493 -0.012404386 0.11205337 -0.044415597 0.12673962 -0.042330798 0.07702268 -0.087546796 -0.020242779 0.1340593 0.10779887 -0.17337295 -0.16828313 0.36124137 -0.25316632 -0.17595965 0.29706904 -0.14563546 -0.009510271 0.10000069 0.06743112 -0.055055324 -0.095336884 -0.33934793 -0.13379103 -0.17592365 -0.23515177 -0.32027376 0.28327912 0.13658874 0.06056297 0.16794825 -0.05077004 0.3156615 -0.31716937 -0.14695501 -0.1853083 -0.039872076 0.071778275 0.028444953 0.088914655 -0.117568344 0.12428186 0.14994407 0.1408348 0.0023890322 -0.12857394 -0.18049893 0.2727112 -0.003243965 0.0138881495 -0.52445436 0.035358515 -0.09073796 -0.34461474 0.2799347 -0.11105293 0.15158752 0.050045986 0.2216438 -0.06632815 -0.10099058 -0.20718655 0.10279693 -0.043671742 -0.045226227 -0.09830144 0.05242876 0.018767228 0.060033176 -0.10153478 -0.22288518 0.43671176 0.046040155 0.09439097 -0.18549341 0.050663102 -0.0049494733 -0.35234034 0.20122197 0.14710629 0.37636626
saudi 0.090913676 -0.0817255 0.08994953 0.03263207 -0.34427023 -0.089599505 0.0047390615 -0.023383431 -0.07137367 -0.007898966 0.037604015 0.1789823 0.13308315 -0.3338257 0.31633946 -0.0078849215 0.2675707 0.3584253 0.03555968 0.35636804 -0.103653505 0.2773204 -0.07785306 -0.3041927 -0.11947582 0.030882852 -0.056353867 -0.003956073 0.041108202 0.13078679 -0.21124777 -0.009551254 -0.29843777 -0.18381014 0.22176094 0.038121518 -0.07036061 -0.04352286 -0.049871605 0.091191046 0.26254255 0.06280814 0.058679435 -0.092036866 0.19744246 -0.14509115 -0.0064391615 -0.15635955 -0.1604314 -0.018736713 -0.051065553 -0.12623389 -0.20292015 -0.22508512 0.0028439793 0.2240593 0.144992 -0.331405 -0.0962052 -0.06689591 0.16596997 -0.3072927 -0.32871458 -0.20069154 0.06350689 0.02859022 0.112046026 0.10883874 0.17654085 -0.10168347 0.103575036 -0.25434628 -0.04589775 -0.2661954 0.2332707 0.18854679 0.16256842 0.57527244 -0.21447428 -0.22103022 0.19175373 -0.3860409 -0.015554685 0.03975621 0.08542348 0.25324512 0.26925865 -0.13079375 0.31848195 0.44203737 0.13665974 -0.21827893 0.031032808 -0.17227674 0.028248277 0.2876404 0.01652482 -0.21163641 -0.020189272 0.14479613 0.034457985 -0.41127786 0.27693167 -0.020015158 -0.105277374 0.23346186 -0.1115158 0.12512243 -0.03557244 -0.2139279 0.04301621 -0.1299187 0.15075946 -0.00995693 -0.19401436 -0.23540504 -0.14993109 0.011681311 -0.05243974 0.0022912072 -0.09583602 -0.37938488 0.18610524 0.10652058 -0.3716116 0.019274846 -0.17217839 0.09291063
ecuador -0.028633421 -0.45302215 0.07265311 0.08021674 0.086517245 -0.06501022 -0.019419363 0.0904047 -0.122789524 0.040532194 -0.02109406 0.22081617 -0.05608424 -0.30061686 0.2886623 -0.0033157791 0.002252217 0.067878 -0.04243552 0.18055077 -0.07063543 0.12674893 0.007243499 -0.0106815165 -0.24037574 -0.16593911 -0.2913815 0.013084545 0.0508073 -0.10102093 -0.25010478 0.028554888 -0.072633214 0.037740316 0.024639647 0.25064594 0.14772253 0.012635143 0.1473707 0.065204054 0.21338002 0.1117194 0.18117595 0.01929382 0.2164441 0.086422324 -0.09243262 -0.23741902 0.14319968 -0.08255785 -0.14222468 -0.057846427 -0.08065313 0.00264114 0.053921845 0.09108175 0.2692983 0.026935333 0.020666042 -0.092427336 0.033303782 -0.21277814 -0.031315345 0.20707342 0.17069088 -0.09280518 -0.04392227 -0.12317668 0.114944994 -0.10314839 0.18691117 0.15198098 -0.106183656 -0.34783074 0.037089933 0.09814924 -0.1341643 0.23568144 -0.116588496 -0.14725718 -0.0070879334 -0.011779145 -0.07679577 0.2991641 -0.030501997 0.180652 0.32934904 -0.071064234 0.28173846 0.22654921 -0.08423175 -0.20965107 0.1316396 0.017409068 -0.002235677 -0.061487455 -0.033483814 -0.415181 0.05909051 0.1983159 -0.02432571 -0.052929066 -0.18305643 -0.1083524 -0.15396258 0.04775761 0.0032014996 -0.15235277 0.12776408 0.10987288 0.05404405 -0.40440252 -0.16957916 -0.07186016 -0.25961292 -0.13150255 -0.026019035 0.11513757 0.044813417 -0.0064659747 -0.080789156 -0.09411035 -0.14385414 0.21188083 -0.27107126 0.29120418 -0.030541759 0.19708383
wales -0.14699209 -0.20338666 0.066174455 0.07290023 0.1634619 -0.02858565 -0.009929833 0.13546638 -0.17461246 0.01042215 0.13279186 0.047214847 -0.06430346 -0.080489084 0.26634946 -0.15668951 -0.10250581 -0.06513816 -0.19179352 -0.00048207538 -0.302781 0.071927845 -0.16993149 -0.18570513 -0.09993737 -0.12430796 -0.42489195 0.0401198 -0.26941788 -0.08982957 -0.20959961 0.35444036 0.049482595 -0.09377646 -0.14379823 0.2034473 -0.03214579 -0.15158746 -0.019370303 0.036170434 0.43474138 -0.0312208 -0.101515315 -0.43568066 0.050996974 -0.2974967 -0.08186195 -0.03847245 -0.059096877 -0.16895027 -0.113531195 -0.13851686 -0.05539528 -0.06361169 -0.03752945 -0.071875244 0.08207819 -0.23620924 -0.009699011 0.028356293 0.051912397 -0.1961181 -0.15699628 -0.08344297 0.022266284 0.012507695 -0.092003465 -0.03884143 -0.0014806145 -0.24184278 0.076471604 0.17184448 -0.16908073 -0.07078022 0.2860037 0.044613738 -0.23344749 -0.036190093 -0.30705622 0.22904143 0.06655001 -0.21431674 -0.33564034 0.4266455 0.18788382 0.38001785 0.17713365 -0.15541525 0.2763745 0.3552814 -0.008140751 -0.27363017 -0.14217824 -0.20788255 0.16367586 0.016743137 -0.1743439 -0.21769221 0.07782892 0.03467998 -0.0040463307 0.046523713 0.031813547 0.0375274 0.10310079 0.17100507 0.0387113 -0.0528055 0.18855612 -0.13135529 0.21779573 -0.051984143 0.028338159 0.08465043 -0.009455738 -0.05054433 -0.24323532 0.19891757 0.022900729 0.13873322 -0.05513103 -0.114714496 0.18069847 0.2734158 0.027186422 0.21327107 -0.27136922 -0.024010565
arabia 0.083413415 -0.22235902 0.19506212 0.08834753 -0.24186085 -0.16701886 0.041201625 -0.034125987 -0.08388116 -0.04633578 0.048062723 0.21282762 0.0025863543 -0.27261662 0.27925438 0.008864366 0.29655457 0.3475563 -0.04780007 0.3750138 -0.12653907 0.25373203 -0.058656905 -0.26309446 -0.08490941 0.119014844 -0.083547 -0.11715975 -0.10373851 0.16901098 -0.06809261 0.0012176504 -0.2438772 -0.25491828 0.28893656 0.013961611 0.022288863 -0.044293266 0.024347387 0.13323121 0.26432878 0.006208958 0.081192404 -0.1954736 0.16963324 0.023283938 -0.020152017 0.00057321525 -0.10606356 0.033634868 -0.14550634 -0.07386722 -0.35654345 -0.093531236 0.017936474 0.101502486 0.07334486 -0.25207812 -0.2333898 -0.0889017 0.13367376 -0.2965284 -0.15972462 -0.28907475 -0.032475125 0.056622665 0.20712784 0.16017759 0.14931475 -0.20835984 0.1369208 -0.20046912 -0.11735308 -0.10767879 0.28078318 0.07159446 0.05066158 0.38442725 -0.23043363 -0.08711314 0.18945934 -0.45603895 0.10957052 0.1970858 0.23392129 0.15675001 0.3854097 -0.20815311 0.1858379 0.45030406 0.074020684 -0.074134424 -0.06507976 -0.18528812 -0.10562487 0.31723943 -0.06848746 -0.28592464 -0.032373965 0.11227344 0.03592828 -0.3915156 0.19816098 -0.23208751 0.031384315 0.19225612 -0.14658551 -0.014660285 -0.101177365 -0.29533568 0.14042203 -0.05811897 0.12946728 0.051150616 -0.30671203 -0.29515254 -0.08794704 0.037230294 -0.04124368 0.05427603 0.0028347932 -0.36517602 0.18306714 0.21292888 -0.37889946 -0.031327765 0.10909033 -0.01157577
morocco 0.19050568 -0.23277648 -0.11199876 0.09765478 0.087437086 -0.091727465 -0.29099044 0.20071037 -0.29642317 0.14565891 0.07702068 0.0028988842 -0.15381509 -0.071581945 0.09234109 0.11000474 0.085237935 0.110505395 -0.2317446 0.30462268 -0.1097865 0.22089452 0.059466027 -0.014101098 -0.25760698 -0.013165539 0.021393823 0.19656211 -0.091124654 0.26742902 -0.15500149 0.0095259 -0.03418687 0.15419938 0.102160394 -0.104415156 0.19667277 0.22478645 -0.008376661 -0.019143758 0.0995558 0.20456153 0.0596448 0.076254405 0.2614693 -0.058707207 -0.20761731 -0.06349754 -0.12768537 -0.28689042 0.3194442 -0.16498396 0.18976611 0.016324656 -0.10629643 0.31081486 0.3247035 -0.16394375 -0.03995054 -0.12460983 0.003946146 -0.24926198 0.29995474 0.11638763 0.10890912 0.06895383 -0.2266067 0.044934466 0.14590196 -0.19180006 0.064756334 0.03986267 -0.033425048 -0.49092826 0.36629638 -0.0057117613 0.12636966 0.28735337 -0.35893098 0.10415253 0.12810373 -0.14067237 -0.18472761 0.19701163 -0.07264954 0.01231636 -0.054881286 -0.05419048 0.27874306 0.23312554 0.19815588 -0.17294322 -0.1034602 0.24493778 0.28914905 0.21018788 -0.10608777 -0.18766029 0.15591966 -0.098778725 -0.116076596 -0.16087303 0.13663995 0.014216336 -0.05836789 0.1582546 -0.15182514 0.016318351 -0.20757753 -0.006252255 0.22635643 -0.024277262 0.016719747 0.22704828 0.04417745 -0.009532422 0.08401302 0.16095667 0.22034144 0.06968969 -0.085254945 0.13990906 0.20173173 0.27094758 -0.17897065 0.375476 -0.21162742 0.12205678
spain 0.1713431 -0.15660232 -0.008948994 -0.0367338 0.048552994 -0.21582495 0.007345488 0.025302915 -0.28967878 0.18703343 -0.029728286 0.0032504688 0.100858174 -0.082649834 0.29673094 0.013374638 -0.09242922 0.110144466 -0.13688244 0.0944557 -0.22651201 0.28608617 -0.24133769 -0.05953963 -0.24701495 -0.025475405 -0.09479811 0.13238914 -0.35431826 -0.07229848 -0.26444614 0.13434991 -0.19377749 -0.030704644 0.13974676 -0.21961187 0.35420352 -0.0061988817 0.19622509 0.14525333 -0.09743004 -0.09194211 -0.09739234 -0.107852034 0.2067835 -0.39436966 -0.3074755 -0.23243017 0.0060298704 -0.19388145 0.13509594 -0.29344127 0.06353208 -0.0050814333 -0.13865949 0.12671667 0.2229222 -0.010811542 0.085549675 0.061229352 -0.063265294 -0.26438993 -0.09427603 0.036084283 0.21315774 0.17921859 -0.24839205 -0.09447061 0.1015463 -0.2251558 0.2029853 -0.02183136 0.03170964 -0.16835043 0.4212836 -0.038031973 0.07142205 0.22593445 -0.23044528 -0.15172483 0.026941588 -0.17640494 -0.07102395 0.24651201 0.11151982 -0.12952943 0.11349132 -0.07404214 0.22513503 -0.0873166 -0.0007218055 -0.24036984 0.022758322 -0.11338618 0.2233734 0.09046515 -0.22872263 -0.35281736 0.03315293 -0.011768678 -0.13204014 -0.07257065 0.19061232 0.077129275 -0.13546872 0.056531005 -0.1433251 0.057779714 -0.21383782 -0.014416197 0.05135092 -0.16426592 0.13218938 0.043531828 -0.11888662 -0.22492734 0.17748977 0.16359188 0.1706555 -0.31260404 0.07730171 0.20931594 0.18647188 0.403554 -0.43647906 0.26212126 0.06842878 0.073537424
final -0.031241968 0.06068926 0.1252767 -0.039896555 -0.064828254 -0.11624626 -0.3035105 0.08194832 0.02305193 0.14665304 -0.014476998 -0.06709942 0.13502708 -0.21418919 -0.07184867 0.05470561 -0.008907519 0.09681845 -0.18007448 0.13872544 -0.05253906 0.15377963 -0.077605 -0.3216205 0.014730198 0.13530932 0.20092452 -0.22905158 -0.0475296 -0.13589856 -0.2173678 0.0725748 -0.12931629 0.21793318 -0.18503337 -0.16767703 0.18005307 0.13265032 -0.25103968 0.07354384 0.1316991 0.4530866 -0.022152005 -0.22505665 0.053095404 0.28164145 -0.26707423 0.07375433 -0.057698883 0.04537716 0.017353697 -0.081181794 0.026903873 0.2367238 0.04132525 -0.0142768305 0.27630994 -0.06974131 -0.036571357 -0.025963467 -0.045761567 -0.1440441 -0.05624728 0.0015688227 0.18077351 0.069210224 -0.14893264 -0.15368779 -0.032215104 -0.2314851 -0.22583756 0.07702561 -0.21098904 -0.19235353 0.26761863 -0.10795073 0.046117757 0.38713118 -0.14727771 0.03184246 -0.091641486 -0.20906688 0.15045947 0.05524823 0.11228787 0.2306917 0.18371761 -0.22028369 0.036733344 0.30607653 -0.11629225 -0.15743245 0.08134793 -0.025222296 0.18150294 -0.1312833 -0.31430775 -0.18648674 0.09845061 0.1770214 -0.40170985 -0.025588179 0.042150825 0.0016703537 -0.10360415 0.020303804 -0.10460405 -0.020391425 0.20804517 -0.038766686 0.07283684 0.004242623 0.1033202 0.049576677 -0.08863808 0.16881293 0.0027755753 0.2405644 0.24391398 0.07645243 -0.0923606 0.0049952827 0.2752704 0.16368112 -0.38695028 0.17952757 -0.009194585 0.16449744
goal 0.05390359 -0.20417781 -0.080496654 0.050408933 0.1054974 -0.016777625 -0.48806828 0.41623935 -0.23422132 0.010195162 -0.05874185 -0.09179007 0.0024973983 -0.13635969 0.11249056 0.13834517 0.25646305 0.24997637 -0.032092024 -0.08876329 -0.2131493 0.09297638 -0.071297385 0.042697594 0.21083328 -0.101313815 -0.103622265 -0.032656312 -0.12035643 0.12817237 -0.31509197 0.054597598 -0.45598328 0.11597071 -0.07744391 0.16285552 0.25498298 0.1028825 0.41770965 -0.037967734 0.37777078 0.2735151 -0.44647878 -0.096772835 0.37607417 0.076381065 -0.16427879 0.053037357 0.16457354 0.17720133 0.047043063 0.02440567 0.059901014 -0.14401133 -0.07901091 0.37303114 0.37161338 -0.27419958 -0.10234131 -0.00045850934 -0.127689 -0.16253532 0.13790926 -0.16610457 -0.072177336 0.18976022 -0.06773836 0.14464389 0.11587353 0.018569173 -0.30227694 -0.1358025 -0.35109895 -0.087368675 0.31101167 -0.19957076 -0.010651122 0.27356884 -0.08492533 -0.09152321 -0.2012447 0.0005343541 0.12177754 0.3930501 0.23477444 -0.03797978 -0.1387288 -0.03020226 0.23585105 0.012301379 -0.17799172 -0.31171247 0.16470528 -0.1719458 0.027952803 0.3178618 -0.24258882 -0.05540695 -0.4141322 -0.021953218 0.025601115 -0.00893906 0.1746596 -0.15615296 0.29097727 -0.1285331 -0.415633 0.2944262 -0.07762462 -0.04850787 0.08595171 0.0068474035 0.04080859 0.00589867 -0.24057037 0.19380295 -0.28500596 -0.023945997 0.19305275 0.08367853 0.2603606 -0.20028274 -0.11738512 0.24351767 -0.13862222 0.2810725 -0.05805214 0.22532874
amp -0.24911556 -0.25837478 0.28729537 -0.21426298 0.1422097 0.09412608 0.3419952 -0.0077320733 -0.32889012 0.054683268 0.20447503 -0.009286654 0.02704183 -0.46456426 0.28673592 0.18986544 -0.21322967 0.5036077 -0.17487705 0.16098641 0.15231776 0.12954931 -0.025251167 -0.4117438 -0.0816245 -0.2231231 0.03838198 0.23305671 0.005464583 0.014604516 -0.3952652 0.13362652 -0.054899834 -0.041839346 -0.2916796 0.3489605 0.0906939 0.015091246 0.32767862 0.1279713 0.21781112 0.047155436 -0.26258442 0.038877916 0.18757445 0.09803068 -0.12974541 0.12048022 -0.33865067 -0.22173451 0.090840146 -0.118799895 0.078580834 0.15414187 0.14562 0.14308093 0.09515584 -0.25288138 -0.21521398 -0.054949686 -0.47293365 0.10930437 -0.32064867 0.0148544535 0.31666747 0.15532623 0.15183662 0.10970337 -0.4048141 -0.09895292 -0.082281955 -0.2410625 -0.0032192883 0.30931488 0.12816265 -0.073827624 -0.29190776 0.29323748 -0.08281303 0.27997002 -0.13142166 -0.41152775 0.004524252 0.31391245 0.038820546 -0.12731652 0.15444529 -0.118531294 -0.0644743 0.2354864 0.17961532 -0.19146517 -0.26775312 0.08039474 0.057632703 0.20293227 -0.1227467 0.10993157 0.08320309 -0.0073483954 -0.42569503 -0.007141846 -0.09327919 -0.023385098 -0.11385829 0.053604238 -0.00417918 0.21843211 -0.2291961 0.28124714 -0.30126604 -0.13060719 -0.020307394 0.048649643 -0.15592425 0.19059809 -0.12617183 -0.1906542 0.047032464 0.057474684 0.16006663 0.12725215 -0.019839397 0.22921513 -0.45265108 0.18389846 -0.083065726 0.3834902
time -0.20779757 -0.2557363 0.19997397 0.39259467 0.028608298 0.032010164 0.31759092 0.22360434 -0.3046408 0.374999 0.35892922 0.15887117 -0.090317436 -0.10791918 0.2937957 -0.03435459 0.32621837 0.06799574 -0.23367365 0.021660978 -0.067128465 0.019395895 0.036256313 -0.12315923 0.049462184 -0.02065291 0.014468248 -0.053446844 0.2615906 0.42984954 -0.3200895 0.08232943 -0.24806558 0.14019258 0.17358008 -0.020120032 0.164202 -0.10194516 0.24364823 -0.030278713 0.36388063 0.123664185 -0.20852351 -0.1239674 0.16540423 0.06555025 -0.23738691 -0.07586029 -0.12409943 0.22141178 0.12525384 -0.116460584 0.28277037 0.024082568 0.02089348 0.053743146 0.15284146 -0.3280985 -0.09584322 0.16226855 -0.17695495 -0.14743257 -0.1378897 -0.008551611 0.46156535 -0.17340267 -0.3452073 0.08090527 0.021967914 -0.25896564 -0.03487931 0.23344229 -0.21158403 -0.40141279 0.15478678 -0.08210147 -0.15526827 0.02375103 -0.26435164 0.33387884 -0.085864685 -0.044696447 -0.015268087 0.31174883 0.29929775 -0.1646134 0.11176246 -0.21898974 0.205485 0.14089651 0.24774306 -0.28574148 0.1471797 0.28869003 -0.102844454 -0.07079376 -0.28551832 -0.17474398 -0.104290105 -0.03099023 -0.19168195 -0.14213067 0.27407205 -0.018319009 0.26771733 0.16445512 -0.09222534 0.06850449 -0.15983614 0.15423302 -0.29701346 -0.06952691 -0.11137678 -0.08532172 0.1445802 0.19601265 -0.03409605 0.16120347 0.20542796 0.0013174666 0.11782221 -0.13567016 0.05776958 0.07546628 -0.12202938 -0.4083082 -0.049637157 0.13288338
senegal 0.06585737 -0.31816205 0.08531619 0.10250889 -0.15120983 -0.099730864 -0.023909332 -0.087965116 0.07698297 -0.16193005 -0.010041937 0.029704819 -0.012647353 -0.09848552 0.24426296 0.15683922 0.070859864 0.2158925 -0.2214907 0.24682675 -0.05954338 0.05019291 -0.07186948 -0.0045727347 0.07659252 -0.17908451 -0.009994346 0.12772511 -0.028107606 -0.038880136 -0.15758055 0.07641932 0.04831068 -0.09600995 0.15239896 0.22425376 0.24915886 -0.19462395 0.09683395 -0.07207086 0.3327194 0.063098796 0.199822 -0.21417154 0.21507038 0.088174246 -0.0055850944 0.0014192649 0.19652288 0.03406801 -0.08061162 -0.1144251 0.11197774 -0.010918862 0.021790434 0.12720217 0.06392327 -0.38111392 0.11850771 -0.19711514 -0.031920042 -0.29068282 0.15736884 0.30921984 0.06798067 -0.14306192 0.14278492 -0.060343225 0.101006374 -0.037190493 0.11601234 0.27498904 -0.07905974 -0.46760756 0.2805288 -0.014297931 0.057642993 0.19141607 0.014706813 0.043365546 -0.027329661 -0.18765247 -0.20333125 0.36660558 0.2031639 0.12756902 0.15077142 0.014650365 0.21840586 0.12337211 -0.20725292 -0.2742295 0.10244977 0.07132653 0.049841512 0.08601836 -0.2109426 -0.33726537 -0.009820308 0.23715718 -0.13705471 -0.07698767 0.061313365 -0.34927073 0.05335369 0.30270404 -0.05094691 -0.034084592 0.04439562 -0.14812867 0.14310142 -0.21361805 -0.081673495 -0.19533557 -0.1463842 -0.08641171 0.09121115 0.17672996 -0.13234435 -0.02914214 -0.0001562845 -0.049984355 0.08247785 0.33001432 -0.2354601 0.33542225 -0.15045008 0.088926755
#dreamers2022 0.2634983 -0.36374933 -0.05675786 0.48408705 -0.06290059 -0.16927831 0.033020094 0.12222509 0.138995 -0.15334323 -0.10131861 -0.22292124 -0.14946473 -0.16136351 0.008041566 0.047546443 -0.12215927 0.032228097 -0.111704044 0.12635298 0.26581728 0.4957611 -0.07697413 -0.03439471 -0.11534351 0.15485771 -0.19546792 -0.2094549 -0.009398727 0.024899421 -0.13479482 -0.36125803 0.12629713 -0.041320708 0.0031793346 0.33470094 0.5739141 0.033291977 0.26329482 -0.01494888 -0.25651237 -0.01771725 0.04981332 -0.04653964 -0.31075922 0.21048631 0.1444744 0.102194615 -0.5373522 -0.015354582 0.15915726 0.03423482 0.15727718 -0.20481859 -0.0598224 -0.26924017 0.13699709 -0.38660085 -0.032862563 -0.10783294 -0.24666257 0.021381466 0.19238706 0.11998021 0.016618611 0.026786525 -0.08099783 0.017204555 0.035866376 -0.17653722 0.09519291 -0.02004331 -0.14072928 0.08051764 0.15311554 -0.10855755 0.016687367 0.46074936 -0.39525723 0.13491976 0.04894038 0.03457862 0.0071682213 0.14989373 0.053710975 0.10729227 0.33283865 -0.12053195 0.2457226 0.2679106 0.21225093 -0.070408955 0.11630147 0.112124465 0.30902547 -0.21079579 -0.16046757 -0.116198204 -0.19660242 -0.11777818 -0.23611529 -0.011323798 -0.04193639 0.1525961 0.039612804 -0.0643706 -0.13574146 -0.033163574 0.061305586 0.08732762 0.11045593 0.036655992 -0.028440354 -0.20615155 -0.1279382 0.21455242 -0.08997096 -0.1026589 0.043966334 -0.30907628 -0.18390469 -0.4329311 -0.31093752 0.5151411 -0.05784029 0.09459592 -0.23942526 -0.085752085
jungkook 0.29429725 -0.21730882 -0.13143897 0.28226832 -0.29561263 -0.3691609 0.14834839 0.37440708 -0.3441178 -0.3006202 -0.03714007 -0.12732004 -0.053021684 0.05765458 0.4200391 0.20763443 -0.14831325 -0.085065834 -0.07357696 0.3005202 0.15612304 0.045743592 -0.23821552 -0.031840947 0.21122654 -0.056110613 -0.30981684 -0.40823358 -0.09986243 -0.23123112 -0.026337821 -0.02833784 -0.072448105 -0.19642156 -0.47843966 0.22946633 0.20713273 -0.31797636 0.17019962 0.093963005 0.024002537 0.5383642 0.10209979 0.00862818 -0.1887394 0.45522538 -0.115146525 0.09515765 -0.3857164 -0.014910603 0.14221866 -0.24774152 0.124353565 -0.09644934 -0.38549507 -0.17833406 0.29645312 -0.43814903 0.29926917 0.0691784 -0.37430936 -0.032472014 -0.28721824 -0.023134852 0.2179419 0.22764266 -0.20802626 0.07122806 0.28738144 -0.24440357 -0.18195294 0.24497156 -0.10486001 -0.20283334 0.09462086 -0.22312579 0.16297407 0.34776777 -0.46363825 0.26682714 -0.063722104 -0.2129939 0.041221097 0.114300154 -0.26707008 -0.0017622543 0.4072133 -0.17425662 0.011561998 0.12389207 0.107494056 -0.022703907 0.05810724 0.24573824 0.12066966 0.1597996 -0.21866903 0.17829502 0.20280932 -0.3158491 -0.06703507 0.31261158 0.23460272 0.07310399 0.021202348 -0.27516258 -0.010250213 0.23534814 0.15423985 -0.04294839 0.001989885 -0.0513291 0.007435593 0.30857292 0.06089267 0.26040667 0.3530517 0.1343527 0.032077268 -0.0408749 -0.10047261 -0.53153175 -0.038247578 0.22205831 -0.46149284 0.24051218 -0.17893754 0.10188128
dreamers -0.03650715 -0.2737944 -0.36405647 0.39435312 -0.18136749 -0.17625377 0.07707252 0.270308 -0.27165586 -0.1372139 -0.008196542 0.0908099 -0.020175394 0.047674417 0.24104986 -0.08593585 -0.081487015 -0.09782356 -0.17603104 0.10169778 0.090743795 0.18871285 -0.19354036 0.025344174 0.02209773 0.0048036883 -0.21689275 -0.16851872 -0.1417508 -0.38629058 -0.18128726 -0.26061362 0.049949445 -0.05242151 -0.13919692 0.17714565 0.06283886 -0.08885408 0.1522812 0.058151525 0.10443782 0.50231344 0.011440311 0.35462302 -0.1872037 0.32923055 0.10329911 -0.027097668 -0.35620028 -0.104658745 0.2155849 -0.41585264 0.14351127 -0.19326434 -0.024729365 -0.04357493 0.0017580016 -0.47726065 0.13401854 0.14442046 -0.21439137 -0.08192205 -0.24347642 -0.16820431 0.28187585 0.09925756 -0.027631871 0.13039613 0.01509646 -0.15251079 -0.12308446 0.07464797 -0.22221322 -0.036582146 -0.03995658 -0.2611063 -0.043297607 0.3080232 -0.35636222 0.26246765 -0.3729375 -0.25523418 0.16868228 0.23648429 0.06704778 0.19308409 0.20328635 -0.12513807 0.08108907 0.14785834 -0.06086137 -0.17119628 0.09726203 0.2015627 0.1630816 -0.15769829 -0.1658185 -0.0327818 0.1914647 -0.22035389 0.0018424114 0.16748753 0.09631926 0.10559158 -0.0009775485 -0.2946204 -0.22793582 0.10170806 0.020150263 0.12830965 -0.09521956 0.013895776 0.27945518 0.49153128 -0.0011433517 0.036303263 0.15792379 0.20161389 -0.11656584 -0.2142015 -0.24457946 -0.3821606 -0.034956127 0.31380934 -0.53459316 0.3034748 -0.05962854 0.22418034
france -0.27534747 -0.16420488 0.093816444 0.11109491 -0.035630953 -0.054935966 -0.2664977 0.050704736 -0.118511766 -0.023565583 0.079616584 -0.01186864 0.112896934 -0.05699564 0.08397536 0.21117209 -0.097761415 -0.31019437 -0.20085318 0.18972066 -0.13039313 0.06696558 -0.09014506 -0.26726407 0.06598816 -0.07282567 0.09424174 0.0493724 -0.0057391715 0.12547016 -0.009853996 0.2812756 -0.11298305 0.1606308 -0.19148915 0.016052242 0.23954816 0.20000401 0.34024805 0.06355838 0.07802489 0.2753999 -0.19576767 -0.29154468 0.11883959 -0.17575526 -0.33583197 -0.13871911 -0.058949925 0.015958363 -0.041455403 -0.31522036 0.078443885 -0.2275221 0.115182266 -0.08958562 0.2463993 -0.055434503 -0.18370521 -0.09717816 0.06312237 -0.14049618 -0.20151329 -0.119417325 0.08693183 0.18560478 -0.21789113 0.22971748 -0.1784578 -0.066636994 -0.019165358 -0.09399316 -0.17325692 -0.22666773 0.5434259 -0.055195548 0.01322135 0.12688488 -0.2494825 -0.0003382895 -0.018214662 -0.050878502 -0.060246233 0.112047516 0.07881274 0.16510308 0.2890812 0.095992655 0.063358925 0.22608739 -0.096954554 -0.4192892 -0.018001541 -0.1102959 0.21202682 0.13530926 -0.004665154 -0.36506966 0.01951495 0.11284083 -0.12475983 -0.18460672 0.23741356 -0.3073185 -0.09589309 0.022480493 -0.11487754 -0.22931539 0.088210106 0.0057424814 0.079867505 0.06824433 -0.057945948 0.00907148 -0.038200352 -0.35521486 -0.14098978 0.24369623 -0.24620524 0.14335649 -0.2152691 -0.076805145 0.18566541 0.15311871 -0.5106261 0.08984333 -0.09232268 0.30749384
streaming -0.1628876 -0.009974681 -0.056277014 -0.15424252 0.14208183 -0.026742183 0.14054073 0.21903661 -0.20040864 0.09017088 0.09516822 -0.052723665 0.017967645 -0.019157445 0.24699625 0.18683432 -0.17120811 0.3467173 0.020679303 0.27787796 -0.14134343 0.1864191 -0.10104593 -0.07953575 -0.1356989 -0.014053943 -0.12033216 -0.15666981 0.13234171 0.011883475 -0.30097058 -0.008700256 0.010435961 0.023869557 0.33789852 0.3527847 0.4038842 -0.049306065 0.07534315 -0.06530601 0.11234 0.25374773 0.39077502 -0.24388921 0.39511847 0.16189794 0.01590249 -0.007906827 -0.054888956 0.08014543 -0.13262373 -0.01976896 -0.08591719 -0.012935245 0.030306483 0.09458443 0.16996783 -0.46934935 -0.09380894 -0.013627773 -0.012612469 -0.11725058 -0.11349545 0.09798748 0.13992216 0.14113231 0.11690016 0.053338394 0.049139094 -0.12273386 0.16042313 0.0030328133 -0.16496365 -0.21711081 0.24814618 -0.20584296 -0.21332239 0.07535915 -0.25267634 0.08779384 0.10304476 0.004029229 -0.16975413 -0.023736648 -0.0060202465 0.2407194 0.45051166 -0.032787118 -0.06235601 0.2524047 -0.028248023 -0.04144468 -0.03389996 0.0020969573 0.36031467 0.10508033 -0.16214342 -0.10364117 -0.14951733 0.06478519 -0.2732885 0.09522298 -0.1917055 -0.127482 -0.0060660066 0.07399328 0.13129875 -0.108694546 -0.11585768 0.08214269 0.32303774 -0.2953967 0.164767 -0.23411058 -0.26260558 -0.34344432 -0.21625817 -0.0856391 -0.117997736 -0.15095486 -0.029729461 0.04501535 -0.105318636 0.15587108 -0.16316745 0.054340437 -0.29554906 0.015652979
japan 0.08262834 -0.14468011 0.019794606 0.091780566 0.025487555 0.055383112 0.035839718 0.029566862 -0.23512518 0.08919007 -0.17345016 -0.02018284 0.062454365 0.11871754 0.32656854 0.070426635 -0.30516103 0.14885688 -0.23900542 0.18721691 -0.56257397 0.4137516 -0.11504843 -0.017510604 -0.10138666 -0.12264576 -0.17279947 -0.060797613 0.0034283013 -0.032155387 -0.30832133 -0.11656463 -0.13491812 0.08605272 0.08890327 0.1532975 0.22046731 0.105743766 0.18621026 0.20482896 0.18341523 -0.015011525 -0.012360013 -0.18827517 0.19912305 -0.07096134 -0.4375931 -0.03660507 -0.08415134 0.0060088146 0.02928558 -0.2663589 0.17358877 -0.055443298 -0.07442485 0.2978692 0.046625312 0.16155407 0.07848451 0.21007268 0.2303201 -0.08133297 -0.09355699 -0.024794757 0.25526792 -0.12044233 -0.16545808 0.1342385 0.24298437 -0.0567504 -0.13576232 -0.19657701 -0.1191992 -0.38303143 0.40141314 0.122176394 -0.11475847 0.059718754 -0.24352783 -0.03373254 0.16227193 -0.1472503 -0.049194586 0.2920725 0.14067677 0.11727057 0.114320345 -0.07269129 0.0046267426 0.37877315 0.034601036 -0.042374156 0.16209082 0.067207314 0.10929729 -0.019224986 -0.16249931 -0.13179708 -0.062061943 0.14354813 -0.16456856 -0.1462697 0.36045438 -0.19925994 -0.13427547 0.30955186 -0.03700314 0.10095922 -0.18185751 -0.123145595 0.12807363 -0.17344445 -0.011087049 0.19179271 -0.11043397 -0.025055356 0.10564683 0.32469535 0.31274047 -0.004186302 -0.19509949 0.12665507 0.01739017 0.54628634 0.023247037 -0.006063837 -0.15386681 0.025352752
#qatar 0.27602658 -0.17489877 0.09693208 0.15238996 0.33853832 0.14779839 -0.14071564 -0.037345722 -0.10324336 -0.120085046 0.16257302 -0.23018938 -0.14894335 -0.46812686 -0.17612818 0.13631886 0.11277182 0.3056497 -0.08258798 0.23860537 0.3621071 0.25645697 0.29165244 0.0940328 -0.07797255 -0.00085684925 -0.15562522 0.03797081 -0.0054695867 -0.068970785 0.018740136 0.043445572 -0.0338956 -0.09884793 0.07373408 0.100124285 0.49669477 -0.11930194 -0.04253461 0.1291816 -0.009813963 0.2288683 -0.18145584 -0.40692395 -0.11816782 0.17533474 -0.05193868 0.047320675 -0.3616795 0.36908892 -0.12204264 0.07829198 0.13587996 0.13467076 0.00967356 -0.14525226 0.058302183 -0.18695788 -0.051305585 -0.08099251 0.06484075 -0.19008236 -0.051426403 -0.039922934 0.21726647 -0.03776261 -0.041315716 -0.014434187 0.32263556 0.18257008 -0.14127074 -0.14771776 -0.21148837 -0.06517735 0.08947498 -0.00947761 -0.021122927 -0.023795195 -0.23177734 -0.0077254614 -0.02599213 -0.16883436 -0.13951147 0.21111713 -0.07500699 0.096529074 0.2917842 0.11218436 0.29580224 0.09533081 0.3753363 -0.24386913 0.0016296249 -0.026488265 0.2519241 -0.09480646 0.08700078 -0.052034188 -0.16160175 -0.07319318 -0.024115209 -0.0123378355 0.057404436 0.19742882 -0.012199969 0.039443634 -0.027752984 -0.25481373 0.12871444 -0.21447228 0.17360806 -0.06517116 -0.04756574 -0.18662953 0.07845363 -0.028856933 0.09927377 -0.16307788 0.17753717 -0.365828 0.06290504 -0.27181205 -0.17978264 0.47710028 -0.12508158 -0.028856957 -0.3010537 0.25077823
korea 0.025205724 0.008504567 0.14807428 -0.011033329 -0.032592114 -0.22369543 -0.07856857 0.046051655 -0.39263788 0.0526866 -0.036421567 0.08349425 -0.062643774 -0.23173863 0.3029276 0.15578939 0.08102228 0.06102169 -0.024305496 0.031091142 -0.114312515 0.27251372 -0.27403143 -0.029906169 -0.045820702 -0.014214715 -0.24272585 0.08902702 -0.08096325 -0.23366077 -0.027452005 -0.14914908 0.18327141 0.008839255 0.013599894 0.1903857 0.23067494 0.09336182 0.09732115 0.38881123 0.37486932 -0.3906348 -0.19484022 -0.23234932 0.27391237 -0.06030227 -0.34576586 -0.36738384 -3.1076943e-05 0.14158167 -0.2789469 0.0806894 0.24383678 -0.19726937 -0.30220526 0.022766983 0.2763199 -0.25130293 -0.26936218 0.086918265 0.041044224 -0.33349147 -0.014044737 0.17596637 0.18112737 -0.051083945 -0.06642697 -0.00095635874 0.45300853 -0.2319357 0.032102484 -0.17988046 -0.2517356 -0.42207748 0.34103647 0.16521233 -0.16110487 0.17532109 -0.49382517 0.030400533 0.17429101 0.042842958 0.07653729 0.07581564 0.086172156 0.022499723 0.0007808142 -0.14991264 0.1914399 0.32303596 -0.3269472 -0.31785148 0.18969445 0.17683788 0.23730147 0.094595455 -0.37922704 -0.0037482202 0.14804581 -0.070229754 -0.15094118 -0.15548255 -0.040665776 -0.21882163 -0.08057409 -0.1008513 0.08305868 -0.0025063767 0.08200249 -0.26662034 -0.00046429082 0.23908044 0.10843408 0.29123688 -0.011944175 -0.032574505 -0.18823256 -0.046254635 -0.37043926 -0.036514238 -0.054468706 0.048325915 -0.12909429 0.3269873 -0.041028727 0.14962515 0.0014520503 0.28555873
south 0.03512125 0.06601553 0.28352767 -0.04242648 -0.038342588 -0.21881288 0.12987968 -0.0926063 -0.39597157 0.0031960674 -0.08336159 0.09380577 -0.18546014 -0.17843762 0.3259227 0.3198822 0.056163434 0.12604915 -0.06094925 0.15750544 -0.069787085 0.22602032 -0.26211792 0.108736426 0.03718488 -0.09996581 -0.16642982 0.0759408 -0.085616015 -0.10653618 -0.1187465 -0.33990765 0.15256129 0.10488847 0.10363849 0.2101872 0.2036829 0.20619209 0.06610101 0.26223952 0.4516574 -0.24038698 -0.32729083 -0.24315852 0.33670884 0.11259587 -0.46090358 -0.3527945 -0.06955855 0.17751789 -0.2368918 0.066204906 0.30531472 -0.17361827 -0.24455816 -0.07369667 0.07816411 -0.2504809 -0.28429937 0.16504797 -0.048268534 -0.21540436 -0.055375032 0.26382297 0.24770527 -0.16010973 -0.06601411 -0.13238852 0.4535373 -0.27171403 0.09399565 -0.16077864 -0.28105816 -0.32809827 0.27060303 0.1587304 -0.13118085 0.22815432 -0.34688476 0.15904173 0.21547309 -0.009657278 0.0008311332 0.24106161 0.053141095 -0.046352025 0.047213685 -0.19254442 0.12988694 0.24765943 -0.37073845 -0.2516567 0.106179066 0.1135495 0.15627322 -0.026939066 -0.615616 -0.1448935 0.034897983 -0.014649899 -0.018221587 -0.21780485 -0.0016215784 -0.27165806 -0.10256371 -0.09995574 0.11657636 -0.10374325 0.037761297 -0.20512591 0.04965693 0.20731805 0.16234995 0.10673432 -0.0071502104 -0.038483463 -0.20656689 0.12660398 -0.45516118 -0.0933769 -0.08312661 0.051147506 0.031291604 0.32122862 -0.11177506 0.13275853 -0.03297547 0.1800789
#fifa 0.2046274 -0.008235857 -0.022186654 0.322169 0.3725623 0.1276287 -0.4107766 0.22372992 -0.02016433 0.09147001 0.09597649 -0.017884852 -0.23020414 -0.003119625 -0.019180948 0.17371029 0.13082826 0.09353891 -0.101243064 0.17064345 0.14687379 0.33146417 0.20513819 -0.13893338 -0.26888403 -0.06606357 -0.24143332 0.020944038 -0.14056289 0.17542608 0.162097 -0.110658556 0.14864147 -0.15089591 -0.033129722 0.087985255 0.4397977 -0.057514563 0.09747803 0.20586209 0.013801232 -0.126975 -0.05121508 -0.15885897 0.017264895 -0.011624799 -0.19382344 -0.25147283 -0.3594397 0.36810517 -0.013367083 0.12088488 -0.057412025 0.093228586 0.2359386 -0.26705045 0.14051978 -0.46594784 0.07853136 -0.16854982 0.08790667 -0.13979399 -0.020408576 0.12896279 0.08655176 0.09651475 0.21604902 -0.081495516 0.27424777 -0.027196141 0.17237341 0.06944766 -0.08628394 0.12068809 0.041967094 -0.07460543 -0.05383085 0.07583348 -0.16344753 0.07964231 -0.15865768 -0.22687493 -0.15020247 0.34509563 0.4606994 0.17051445 0.30641073 0.2950844 0.18457977 0.11523141 0.30145484 -0.28660536 0.1920497 0.12898739 0.37900096 -0.23747647 -0.07847108 -0.057612367 -0.091132745 0.24097343 -0.052661166 0.20180058 0.1041201 0.14399008 0.021762654 0.09190335 -0.113980934 -0.3785508 -0.12750998 -0.048086096 0.26798528 -0.17529202 0.015066655 -0.0025016118 0.072252676 0.20068364 0.09933036 -0.040655304 0.13881864 -0.3230465 -0.17495687 -0.23523645 -0.012748591 0.22825588 -0.11028207 -0.039296005 -0.29032364 0.13446777
penalty 0.20820625 0.021545276 0.22622296 0.31705922 0.15861848 -0.022206333 -0.1484354 0.33755735 -0.10525339 -0.08353863 0.34100273 -0.12552124 0.19340497 0.17684925 0.28134456 -0.13821258 -0.06557408 0.30640832 0.06357492 0.21435371 -0.07056121 0.48424438 -0.7214609 -0.15080851 -0.10215021 -0.45963278 -0.12811476 0.2741367 -0.2035943 -0.112785555 -0.13049619 -0.10197328 -0.23278666 0.10268661 0.0996201 0.04153847 0.35935006 -0.11444377 0.24599317 0.07253446 0.5465247 0.09932616 -0.2747963 -0.45492598 0.3705333 -0.09014184 -0.4911044 0.1749874 -0.18099152 0.28509313 0.41529074 -0.62094754 -0.11479481 -0.11074177 -0.1838741 0.20599204 0.76751125 0.03868541 -0.05370056 0.1949225 -0.26502132 -0.04185926 0.10760793 0.13266505 0.09721234 0.17389488 0.055075567 0.046293978 -0.28595647 -0.33473358 0.1431247 0.13275486 -0.07460444 -0.46531963 0.28983897 -0.2451704 -0.051499736 0.13474104 -0.03688122 0.010028392 -0.37973008 -0.0877275 -0.07322349 -0.22177003 0.25351766 0.17848179 0.15065415 -0.1353167 0.23701414 0.48162025 0.03710897 0.054716736 -0.3321403 0.26417553 -0.22950694 0.16330723 0.17541678 -0.029317822 -0.24809217 0.4265715 0.0014110967 -0.1891988 0.28657463 0.2070785 0.044663947 0.110052444 -0.11221086 -0.016998501 0.019892378 -0.33588937 -0.42021173 0.10432474 -0.07302679 0.014224628 -0.24645951 0.39536792 -0.04185922 0.16261461 0.14253624 -0.28195223 -0.05389724 0.022227662 0.009131452 -0.017894356 0.18971032 0.09153394 0.03834748 0.056418613
good -0.012586519 -0.51709753 0.06508063 0.19221383 -0.08069164 -0.25219974 -0.02405546 0.5154442 -0.15492673 -0.112480715 0.15550394 0.03662256 0.11848096 -0.14573938 -0.027760824 0.112859294 -0.094086856 0.17697982 -0.37672108 0.1989204 -0.012433145 0.22757939 0.20694424 -0.3497157 0.033653583 -0.17668901 0.0109914 0.44229877 0.25673494 -0.018262861 0.18972068 0.20951815 -0.2857483 -0.034592982 -0.03394793 0.2126564 0.14850157 0.23920268 0.24578498 -0.05219269 0.023701202 0.0050772075 -0.31675 -0.23993918 0.031974223 0.07096041 -0.07771292 -0.06176771 -0.12345817 0.26910016 0.26788202 -0.14989904 -0.008560143 0.08279509 -0.12549794 0.14815784 0.30147073 -0.179308 -0.102688976 0.1402182 -0.1506701 -0.011691243 -0.07186951 0.21118425 -0.1522188 0.110974796 -0.35201243 -0.17846964 -0.16480738 -0.2570616 -0.178122 -0.17045666 -0.15653712 -0.26173538 0.2872986 0.22042432 -0.10964759 0.09415552 -0.17034487 0.23100504 -0.08025531 -0.4625405 0.22763877 0.46528003 -0.14599977 0.11964325 0.44891796 -0.24792689 0.19850685 0.19928287 -0.14075385 -0.11648489 0.28083444 0.113292985 0.059137244 -0.043822065 -0.27957094 0.055206332 -0.24012598 0.02890116 -0.15428263 -0.044527013 -0.0371343 0.007824276 -0.3742146 0.0039672595 -0.17325048 0.3643942 0.16027692 -0.1376711 -0.083055854 -0.36643666 -0.034718983 0.32722846 0.14739448 -0.09347035 -0.12026169 0.25903958 -0.23794891 0.1146105 0.31859073 0.12584865 0.025552897 0.21835767 0.108397454 -0.20100172 -0.04245707 -0.06868394
play 0.15087384 -0.15450571 0.17837697 0.09339437 -0.16853055 0.21054901 -0.0396518 0.18902214 -0.29683146 0.17173718 0.05213001 0.39216453 0.03035518 -0.08187998 0.13212453 0.014536 0.10984095 0.5707055 -0.014496526 0.1831888 -0.27575192 0.36962023 0.16323678 0.0040872907 -0.036617864 0.09746458 -0.18287678 -0.07419122 -0.25256273 0.18507701 -0.03277093 0.10047495 0.018838637 0.07891303 -0.17212848 0.053318705 -0.037450228 0.0322286 0.23735985 -0.30600643 0.32302773 -0.056849666 -0.025723347 -0.3813437 -0.0300957 0.15456852 -0.47655866 0.19632356 -0.11842109 -0.22949485 0.12871136 -0.24285986 0.24802695 -0.04724261 0.055358313 0.46203738 0.20512724 -0.17123488 -0.11037416 0.16402902 -0.24067244 -0.06531821 -0.024431597 -0.05398391 0.35723454 -0.055446588 0.06344246 -0.17237748 -0.3172306 -0.40625376 -0.03258009 0.18065566 -0.03114949 -0.41788545 0.4113594 0.11698532 0.02931717 0.028562231 -0.0902728 0.20333108 -0.15981743 -0.4735525 0.25052854 0.401503 0.025033612 0.0928953 0.12962256 0.19987069 0.0688431 0.07521973 -0.21843562 -0.056026574 0.08191096 0.32157737 0.014710891 0.032210413 -0.013936875 -0.15738107 0.10508139 -0.010270203 -0.16114265 -0.19179036 -0.19571027 0.13483672 0.07435641 -0.055613164 -0.14342771 0.033433225 -0.12176515 0.036479346 0.1129973 -0.08082696 0.34191617 -0.0014412072 0.101295024 -0.06810827 -0.21651673 0.22344357 -0.079334565 0.2958521 0.122690886 -0.084282786 0.09802761 0.030471098 -0.06790202 -0.062236514 -0.29083502 0.2633799
germany -0.021675695 -0.18160582 0.07125259 0.09878077 0.12314119 -0.15502034 0.011407602 0.09958238 -0.33481535 0.121777676 0.049188536 -0.2622217 -0.053751923 -0.22188081 0.26869443 0.20481078 0.069054194 0.31610167 -0.24653248 0.22044827 -0.089355245 0.15095226 -0.06627564 0.044067062 -0.12384909 0.21403204 -0.3187926 0.041982688 -0.121490754 -0.34596246 -0.15036625 0.04254379 -0.10293829 -0.0039388225 0.10111857 -0.103678234 0.2495397 0.1314332 0.21449782 0.15772806 -0.22445494 -0.0010650831 -0.040038142 -0.051634923 0.08237718 -0.03520243 -0.241355 -0.25452778 -0.030441664 -0.18281904 0.15325393 -0.32025337 -0.06651286 -0.10379424 -0.17166014 0.37069026 0.37761405 0.039272744 0.021727493 0.24026808 -0.024429899 -0.12014284 -0.03614385 0.0944523 0.14370933 -0.0010243832 -0.10712229 -0.11221821 -0.061228685 -0.02788099 0.18620728 0.21289952 0.15138152 -0.24996011 0.36088923 -0.005906339 -0.12802613 0.026426945 -0.16026375 -0.20852678 0.26254153 -0.06760851 0.062341616 0.55289227 0.12775141 -0.0012441033 0.0954533 -0.19838919 0.034978848 -0.053130176 -0.020274347 -0.27615264 -0.14386965 -0.19968322 0.40838698 0.13205954 -0.26856172 -0.2924193 0.12091284 -0.03261711 -0.05902542 -0.3122747 0.24163617 0.06637961 -0.19428235 0.46318993 0.19142023 -0.12430299 -0.29710904 0.0064714914 -0.0098456945 -0.12205655 0.10408736 -0.0016620597 -0.121541314 -0.056632202 0.012348775 0.061639 0.07921659 -0.07024817 -0.17268746 0.011452493 0.1815524 0.3673085 -0.3066818 0.29748255 -0.1737516 0.07145489
best 0.12417323 -0.23582472 0.07227612 -0.112540774 -0.10739899 -0.1423782 -0.2048614 0.29681912 -0.53141516 -0.15640202 0.0920737 0.1621891 -0.013330677 -0.17778763 0.41458258 0.094025455 0.16596405 0.14843509 -0.032895684 -0.03439 0.07591971 0.43055117 0.18467017 -0.3925309 -0.12458539 0.15397014 0.12560111 -0.01640433 0.05302433 -0.07071422 0.049050987 0.21880618 -0.32373562 -0.094217144 -0.042374983 0.22602178 -0.18326114 0.18303813 -0.12200662 -0.016069124 0.0033723107 0.26842746 -0.13986522 0.011216032 0.29819965 0.21124363 -0.25017 -0.116200194 -0.021523034 0.32586706 0.35567456 -0.34719753 0.3246676 0.098682806 0.011652563 -0.0070216553 0.37720615 -0.2170789 -0.13817997 0.27918977 -0.15154988 -0.040469717 -0.27652013 0.28213742 0.13994998 0.050310943 -0.089130305 0.1369962 -0.1228581 -0.25050706 -0.017283846 -0.03250329 -0.041497543 -0.2561014 -0.06399026 0.059229463 -0.27105013 0.019842092 -0.11291152 0.17422354 -0.1848082 -0.03237755 -0.015313931 0.17104965 -0.060636844 0.17058723 0.074774005 0.14338529 0.094448715 0.33428392 -0.15686384 -0.30005434 0.21413434 0.11030851 0.25053012 0.17875578 -0.14166161 -0.020248502 -0.07273299 0.009487997 0.12129291 0.07640184 -0.08148023 0.15994157 -0.050349586 0.020653144 -0.114368334 0.20263928 0.14153385 0.054698218 -0.312479 -0.030395592 0.26422352 -0.06484048 0.040775213 -0.120964475 -0.07628006 0.58083093 0.27221814 0.2777518 0.20367515 -0.34863812 -0.24361914 0.2102896 -0.25463742 -0.19834039 -0.2672275 0.010148309
hd 0.06457978 -0.34540337 -0.0064140516 -0.065841906 0.016442798 -0.20332664 -0.05288405 -0.010188529 -0.19683783 0.20216364 0.019647768 -0.015950225 0.13292196 -0.06377009 0.124455966 -0.10006221 -0.22296877 0.043929275 -0.2119096 0.16034813 0.113293074 0.08230197 -0.09232776 0.04358353 -0.23329571 -0.112064 -0.17780522 -0.094393365 -0.09236988 0.019543834 -0.31367707 0.04145093 0.34598103 -0.3066549 0.13828379 0.19886838 0.3494388 -0.001198 0.15480813 0.081778325 0.27866423 0.06777071 0.27817026 -0.056799214 0.35340413 0.04522237 -0.13897851 -0.106042325 -0.048819806 0.21061213 -0.04209206 -0.11869202 -0.022945326 -0.06450028 0.048063155 0.18407734 0.13752638 -0.20643349 -0.27667624 -0.02950016 -0.046123307 -0.07967629 -0.2145302 0.043877475 -0.103986435 -0.25838098 -0.088304564 0.011107196 0.15315332 -0.08853524 -0.04689617 0.13271078 -0.11269106 -0.19361475 0.008806864 0.062193938 -0.121535264 0.22041959 -0.1150286 0.0028754184 -0.028223941 -0.27794704 -0.049802776 0.18395054 0.2982994 0.10928545 0.25115627 0.09334427 0.33848244 0.25132728 -0.13200027 0.0012977531 -0.14481388 -0.10045805 0.3326915 0.040039014 -0.15161352 -0.2932211 -0.11474294 0.06258316 -0.2773598 -0.01806349 0.08274949 -0.19568868 -0.20065254 0.10160884 0.18251993 -0.13314535 -0.07408037 -0.117001995 0.10579818 -0.13190274 -0.0013035348 -0.034744974 -0.296732 -0.12997384 0.09827175 0.1385208 -0.087437436 -0.08653446 -0.0067630624 -0.23040174 -0.34670225 0.29826656 -0.13019805 0.139939 -0.16844413 -0.118647784
#sui 0.45422518 0.10401355 -0.16169809 0.4503671 0.45170897 0.035072673 -0.13901944 -0.104906045 -0.50309867 0.46505138 -0.146714 -0.13039434 -0.35204646 -0.50238335 0.074187405 0.20014094 -0.34629112 0.24217352 0.33539504 0.10754609 -0.018012973 0.38831678 0.00082281046 -0.10840695 -0.14906274 -0.112521045 -0.19200118 -0.09875221 -0.13391784 -0.084471636 0.31199947 -0.156162 -0.13095205 -0.20706956 -0.18828778 0.4084994 0.15640217 0.07948199 -0.3083896 0.12047586 0.49185073 -0.083748 -0.056283023 -0.53011894 0.016305543 0.22270682 -0.16821837 0.043240055 -0.6647353 -0.091490515 0.35284922 0.027428309 -0.22314313 0.18454994 0.32467183 0.22967456 0.15849784 -0.45986927 -0.09389676 -0.042601857 -0.64430404 0.17216073 0.17362152 -0.46736667 0.22624807 -0.082847215 0.2960178 -0.3965353 0.29223248 0.4450416 0.19947977 0.44583938 -0.8404129 -0.1524051 0.30400977 -0.18362413 0.2559456 -0.032776598 -0.3191252 0.3395655 0.13812988 -0.06182421 0.30553758 0.7267397 -0.11416172 0.24219398 -0.16588669 0.1514575 0.14195238 0.4284135 -0.29798126 -0.2055497 0.20777115 0.34024367 0.2164252 -0.12960404 -0.1812929 -0.40501738 0.019899534 0.21116367 -0.5138318 -0.12573272 -0.08040417 -0.06987726 -0.020676149 -0.08720883 -0.3132613 0.2693929 -0.12862869 0.12420811 0.11202302 -0.013422902 -0.013246292 -0.27215844 0.15375002 -0.5040349 0.611366 -0.3435276 0.06663851 0.15355562 0.10020608 -0.4904685 0.049170095 0.062116846 0.054881092 -0.1955755 -0.19419985 -0.41915324
